{"learner":{"attributes":{},"feature_names":["home_team_enc","away_team_enc","tournament_enc","year","elo_home","elo_away"],"feature_types":["int","int","int","int","float","float"],"gradient_booster":{"model":{"gbtree_model_param":{"num_parallel_tree":"1","num_trees":"300"},"iteration_indptr":[0,3,6,9,12,15,18,21,24,27,30,33,36,39,42,45,48,51,54,57,60,63,66,69,72,75,78,81,84,87,90,93,96,99,102,105,108,111,114,117,120,123,126,129,132,135,138,141,144,147,150,153,156,159,162,165,168,171,174,177,180,183,186,189,192,195,198,201,204,207,210,213,216,219,222,225,228,231,234,237,240,243,246,249,252,255,258,261,264,267,270,273,276,279,282,285,288,291,294,297,300],"tree_info":[0,1,2,0,1,2,0,1,2,0,1,2,0,1,2,0,1,2,0,1,2,0,1,2,0,1,2,0,1,2,0,1,2,0,1,2,0,1,2,0,1,2,0,1,2,0,1,2,0,1,2,0,1,2,0,1,2,0,1,2,0,1,2,0,1,2,0,1,2,0,1,2,0,1,2,0,1,2,0,1,2,0,1,2,0,1,2,0,1,2,0,1,2,0,1,2,0,1,2,0,1,2,0,1,2,0,1,2,0,1,2,0,1,2,0,1,2,0,1,2,0,1,2,0,1,2,0,1,2,0,1,2,0,1,2,0,1,2,0,1,2,0,1,2,0,1,2,0,1,2,0,1,2,0,1,2,0,1,2,0,1,2,0,1,2,0,1,2,0,1,2,0,1,2,0,1,2,0,1,2,0,1,2,0,1,2,0,1,2,0,1,2,0,1,2,0,1,2,0,1,2,0,1,2,0,1,2,0,1,2,0,1,2,0,1,2,0,1,2,0,1,2,0,1,2,0,1,2,0,1,2,0,1,2,0,1,2,0,1,2,0,1,2,0,1,2,0,1,2,0,1,2,0,1,2,0,1,2,0,1,2,0,1,2,0,1,2,0,1,2,0,1,2,0,1,2,0,1,2,0,1,2,0,1,2,0,1,2,0,1,2,0,1,2,0,1,2,0,1,2],"trees":[{"base_weights":[-2.3963723E-1,-3.4569418E-1,-1.7157185E-1,-2.8668538E-1,-4.596082E-1,-4.1015023E-1,-1.5696998E-1,-4.437347E-1,-2.6028946E-1,-6.1582404E-1,-4.0142035E-1,-6.4143807E-1,-3.5785043E-1,-2.9709503E-1,-1.3151304E-1,-3.1480664E-1,-5.177232E-1,-3.4789777E-1,-2.057502E-1,-5.2995396E-1,-6.562734E-1,-3.4806138E-1,-4.8840657E-1,-3.600001E-2,-6.48415E-1,-3.2021257E-1,-6.0685164E-1,-3.26854E-1,-2.249475E-1,-1.1388431E-1,-1.958907E-1,-4.5993036E-1,-2.2333577E-1,-6.941177E-1,-4.728209E-1,-2.287167E-1,-3.718667E-1,-1.7820229E-1,-3.586671E-1,-6.2385327E-1,-4.3119273E-1,-6.694012E-1,-5.069253E-1,-6.167248E-1,-3.223793E-1,-5.0312227E-1,-3.092784E-1,-4.8000005E-1,-1.994595E-1,-1.2817094E-1,-3.616584E-1,-2.0000003E-1,-6.291162E-1,-3.0958793E-1,-4.8358214E-1,-4.061136E-1,-1.5834664E-1,-1.009965E-1,-1.845441E-1,-3.2246566E-1,-1.3005556E-1,-5.7600018E-2,-1.4979868E-1,1.09422365E-2,-9.0250716E-2,-1.1076925E-1,-2.1452753E-1,-1.5794313E-1,-9.615848E-2,-7.854079E-2,9.890097E-3,-1.06397204E-1,-1.5863599E-1,-7.046039E-2,-2.8571444E-2,-1.7061615E-1,-9.2992514E-2,-1.6116703E-1,-2.0993917E-1,-1.3138699E-2,-1.4665888E-1,-2.10444E-1,-1.81937E-1,-1.836736E-2,-1.6822433E-1,-6.923079E-2,-1.9229816E-1,-1.1630221E-1,-8.427988E-2,-1.5224044E-1,-1.1293513E-8,1.2413793E-1,-1.0451615E-1,-3.3962276E-2,-2.0000003E-1,8.181818E-2,-7.133222E-2,-9.966546E-2,-1.6888364E-1,1.2857142E-1,-1.6363637E-1,-1.2857145E-1,-2.0264904E-1,-5.5819895E-2,-9.814156E-2,-1.5197171E-1,1.7999999E-1,-1.723831E-1,-8.808512E-2,4.528301E-2,-6.387749E-2,4.170515E-3,-3.252234E-2,-7.476793E-2,-4.0486142E-2,-1.2620945E-1,-8.525207E-2,-2.1640066E-2,-5.5695783E-2],"categories":[],"categories_nodes":[],"categories_segments":[],"categories_sizes":[],"default_left":[0,0,0,0,0,0,0,0,0,0,0,0,0,0,0,0,0,0,0,0,0,0,0,0,0,0,0,0,0,0,0,0,0,0,0,0,0,0,0,0,0,0,0,0,0,0,0,0,0,0,0,0,0,0,0,0,0,0,0,0,0,0,0,0,0,0,0,0,0,0,0,0,0,0,0,0,0,0,0,0,0,0,0,0,0,0,0,0,0,0,0,0,0,0,0,0,0,0,0,0,0,0,0,0,0,0,0,0,0,0,0,0,0,0,0,0,0,0,0],"id":0,"left_children":[1,3,5,7,9,11,13,15,17,19,21,23,25,27,29,31,33,35,37,39,41,43,45,-1,47,49,51,53,55,57,59,61,63,65,67,69,71,73,75,77,79,81,83,85,87,89,91,93,-1,95,97,99,101,103,105,107,109,111,113,115,117,-1,-1,-1,-1,-1,-1,-1,-1,-1,-1,-1,-1,-1,-1,-1,-1,-1,-1,-1,-1,-1,-1,-1,-1,-1,-1,-1,-1,-1,-1,-1,-1,-1,-1,-1,-1,-1,-1,-1,-1,-1,-1,-1,-1,-1,-1,-1,-1,-1,-1,-1,-1,-1,-1,-1,-1,-1,-1],"loss_changes":[1.3231519E2,4.8045715E1,3.885269E1,1.946811E1,2.1969482E1,7.556465E0,3.7517914E1,6.30777E0,1.9264313E1,1.9496613E0,8.108856E0,3.4946442E-1,4.7467346E0,3.4001465E0,1.0091507E1,3.2144527E0,3.0732346E0,4.3462524E0,1.0452934E1,1.7433777E0,5.3401184E-1,7.4530945E0,1.6254425E0,0E0,1.3046265E-3,3.615818E0,4.9115562E-1,2.9439316E0,5.6749973E0,6.3543854E0,1.5910355E1,9.1399574E-1,3.1364102E0,3.151703E-1,2.6540222E0,2.2799253E0,3.2958221E0,9.932205E0,3.71146E0,3.4116364E-1,2.4137897E0,3.950653E-1,9.278822E-1,7.4816513E-1,2.6361008E0,1.3617096E0,1.6680527E0,8.7547183E-1,0E0,3.7216065E0,2.0523262E0,1.3194805E0,3.0682182E-1,2.1775818E0,3.0857563E0,2.2428188E0,5.9309473E0,5.0435066E0,3.4252472E0,2.3417435E0,4.0473957E0,0E0,0E0,0E0,0E0,0E0,0E0,0E0,0E0,0E0,0E0,0E0,0E0,0E0,0E0,0E0,0E0,0E0,0E0,0E0,0E0,0E0,0E0,0E0,0E0,0E0,0E0,0E0,0E0,0E0,0E0,0E0,0E0,0E0,0E0,0E0,0E0,0E0,0E0,0E0,0E0,0E0,0E0,0E0,0E0,0E0,0E0,0E0,0E0,0E0,0E0,0E0,0E0,0E0,0E0,0E0,0E0,0E0,0E0],"parents":[2147483647,0,0,1,1,2,2,3,3,4,4,5,5,6,6,7,7,8,8,9,9,10,10,11,11,12,12,13,13,14,14,15,15,16,16,17,17,18,18,19,19,20,20,21,21,22,22,24,24,25,25,26,26,27,27,28,28,29,29,30,30,31,31,32,32,33,33,34,34,35,35,36,36,37,37,38,38,39,39,40,40,41,41,42,42,43,43,44,44,45,45,46,46,47,47,49,49,50,50,51,51,52,52,53,53,54,54,55,55,56,56,57,57,58,58,59,59,60,60],"right_children":[2,4,6,8,10,12,14,16,18,20,22,24,26,28,30,32,34,36,38,40,42,44,46,-1,48,50,52,54,56,58,60,62,64,66,68,70,72,74,76,78,80,82,84,86,88,90,92,94,-1,96,98,100,102,104,106,108,110,112,114,116,118,-1,-1,-1,-1,-1,-1,-1,-1,-1,-1,-1,-1,-1,-1,-1,-1,-1,-1,-1,-1,-1,-1,-1,-1,-1,-1,-1,-1,-1,-1,-1,-1,-1,-1,-1,-1,-1,-1,-1,-1,-1,-1,-1,-1,-1,-1,-1,-1,-1,-1,-1,-1,-1,-1,-1,-1,-1,-1],"split_conditions":[1.5321227E3,1.5941222E3,1.3229352E3,1.2207831E3,1.3447333E3,1.1143016E3,1.968E3,1.2901096E3,1.98E3,1.6641482E3,1.7245466E3,1.5342806E3,1.8388658E3,1.7200525E3,1.8310093E3,1.0336494E3,1.0336494E3,1.3724624E3,9.8E1,1.2618082E3,3.02E2,1.936E3,2.015E3,-3.600001E-2,3E1,7.9E1,1.968E3,1.21E2,6.8E1,9.6E1,1.7268271E3,4E0,3E1,9E0,2.009E3,1.21E2,3.04E2,8.8E1,1.05E2,1.73E2,1.2776101E3,1.2776101E3,3E0,1.6E1,1.985E3,1.71E2,3.9E1,8.1E1,-1.994595E-1,1.5766808E3,3.03E2,1.877912E3,8.7E1,1.925E3,1.901652E3,1.7761572E3,1.7342714E3,2.8E1,1.6829213E3,1.6136807E3,2.005E3,-5.7600018E-2,-1.4979868E-1,1.09422365E-2,-9.0250716E-2,-1.1076925E-1,-2.1452753E-1,-1.5794313E-1,-9.615848E-2,-7.854079E-2,9.890097E-3,-1.06397204E-1,-1.5863599E-1,-7.046039E-2,-2.8571444E-2,-1.7061615E-1,-9.2992514E-2,-1.6116703E-1,-2.0993917E-1,-1.3138699E-2,-1.4665888E-1,-2.10444E-1,-1.81937E-1,-1.836736E-2,-1.6822433E-1,-6.923079E-2,-1.9229816E-1,-1.1630221E-1,-8.427988E-2,-1.5224044E-1,-1.1293513E-8,1.2413793E-1,-1.0451615E-1,-3.3962276E-2,-2.0000003E-1,8.181818E-2,-7.133222E-2,-9.966546E-2,-1.6888364E-1,1.2857142E-1,-1.6363637E-1,-1.2857145E-1,-2.0264904E-1,-5.5819895E-2,-9.814156E-2,-1.5197171E-1,1.7999999E-1,-1.723831E-1,-8.808512E-2,4.528301E-2,-6.387749E-2,4.170515E-3,-3.252234E-2,-7.476793E-2,-4.0486142E-2,-1.2620945E-1,-8.525207E-2,-2.1640066E-2,-5.5695783E-2],"split_indices":[5,4,4,5,5,4,3,4,3,4,4,5,5,5,4,5,5,4,2,5,1,3,3,0,2,1,3,2,0,2,5,2,2,1,3,2,1,2,2,0,5,5,2,0,3,2,1,0,0,5,1,5,1,3,4,5,5,1,5,5,3,0,0,0,0,0,0,0,0,0,0,0,0,0,0,0,0,0,0,0,0,0,0,0,0,0,0,0,0,0,0,0,0,0,0,0,0,0,0,0,0,0,0,0,0,0,0,0,0,0,0,0,0,0,0,0,0,0,0],"split_type":[0,0,0,0,0,0,0,0,0,0,0,0,0,0,0,0,0,0,0,0,0,0,0,0,0,0,0,0,0,0,0,0,0,0,0,0,0,0,0,0,0,0,0,0,0,0,0,0,0,0,0,0,0,0,0,0,0,0,0,0,0,0,0,0,0,0,0,0,0,0,0,0,0,0,0,0,0,0,0,0,0,0,0,0,0,0,0,0,0,0,0,0,0,0,0,0,0,0,0,0,0,0,0,0,0,0,0,0,0,0,0,0,0,0,0,0,0,0,0],"sum_hessian":[1.8336443E4,7.1662217E3,1.1170222E4,4.723111E3,2.443111E3,6.426666E2,1.0527555E4,6.773333E2,4.0457776E3,6.604444E2,1.7826665E3,1.16444435E2,5.2622217E2,1.6168888E3,8.910666E3,2.4888887E2,4.2844443E2,1.5502222E3,2.4955554E3,2.1599998E2,4.4444443E2,1.1079999E3,6.746666E2,1.7777777E0,1.1466666E2,4.5911108E2,6.711111E1,1.1422222E3,4.7466663E2,6.997333E3,1.9133333E3,9.4666664E1,1.5422221E2,8.399999E1,3.4444443E2,2.613333E2,1.2888888E3,2.1164443E3,3.7911108E2,1.0799999E2,1.0799999E2,4.053333E2,3.9111107E1,9.4666664E1,1.01333325E3,6.217778E2,5.2888885E1,1.2888888E1,1.0177777E2,8.222221E1,3.7688885E2,3.9999998E0,6.3111107E1,1.0315555E3,1.1066666E2,1.2622221E2,3.4844443E2,5.9199995E3,1.0773333E3,6.533333E2,1.2599999E3,1.2888888E1,8.177777E1,3.5555553E1,1.1866666E2,6.222222E0,7.777777E1,2.5288887E2,9.155555E1,2.3199998E2,2.9333332E1,1.1644443E3,1.24444435E2,1.2564443E3,8.5999994E2,6.933333E1,3.0977777E2,5.4222218E1,5.3777775E1,1.4222221E1,9.377777E1,2.6177777E2,1.4355554E2,4.444444E0,3.4666664E1,6.222222E0,8.844444E1,3.902222E2,6.231111E2,6.164444E2,5.333333E0,2.222222E0,5.0666664E1,4.8888884E0,7.9999995E0,1.7333332E1,6.4888885E1,3.3111108E2,4.5777775E1,1.3333333E0,2.6666665E0,1.3777777E1,4.9333332E1,1.2977777E2,9.017777E2,1.08888885E2,1.7777777E0,4.8888885E1,7.733333E1,5.1999996E1,2.9644443E2,3.5866666E2,5.561333E3,4.6577774E2,6.1155554E2,1.8044443E2,4.7288885E2,6.1822217E2,6.417777E2],"tree_param":{"num_deleted":"0","num_feature":"6","num_nodes":"119","size_leaf_vector":"1"}},{"base_weights":[-1.18464395E-1,1.7341037E-1,-2.6369953E-1,-9.521673E-2,5.258631E-1,-4.7474968E-1,-7.9045445E-2,2.5238168E-1,-1.814793E-1,9.6554136E-1,3.860545E-1,-5.9333205E-1,-3.6464468E-1,1.2846045E-1,-2.103875E-1,-1.4413023E-1,5.3438276E-1,-3.692072E-1,-1.51847545E-2,8.1128895E-1,1.2152425E0,2.9177812E-1,6.9616026E-1,-4.8293883E-1,-6.293414E-1,-1.568678E-1,-4.5086712E-1,1.6836373E-2,3.2082683E-1,-3.2138124E-1,3.7712086E-2,-4.3879178E-1,-4.8954662E-2,9.494439E-1,3.7712985E-1,-4.938536E-1,-2.5421238E-1,6.547355E-2,-1.0214974E-1,1.3464991E0,7.099236E-1,1.2337908E0,3.934426E-1,2.0990783E-1,3.8793507E-1,5.593616E-1,9.0753216E-1,-6.97157E-1,-4.495775E-1,-6.736293E-1,-5.7346034E-1,-2.1727024E-1,-2.4340816E-2,-3.9955905E-1,-5.82779E-1,1.6793619E-1,-8.014101E-2,4.8693582E-1,1.8304637E-1,-2.0354478E-1,-4.120117E-1,1.6258489E-1,-1.2642728E-1,-1.4924625E-1,1.5365854E-1,9.333332E-2,-4.2555925E-2,3.6935067E-1,2.2756933E-1,5.012657E-2,1.6341296E-1,-1.5051141E-1,1.4693877E-1,-1.8675193E-2,-9.094271E-2,-4.1268308E-2,3.027146E-2,-2.3000392E-3,-7.5455666E-2,4.078899E-1,1.2857142E-1,2.5750235E-1,1.8748076E-1,3.3759657E-1,4.062696E-1,2.5714284E-1,3.6734685E-2,-3.0887589E-2,7.480835E-2,1.4369747E-1,6.402188E-2,3.5217392E-1,1.621363E-1,2.459671E-1,3.5753426E-1,-2.1229614E-1,-7.663455E-9,-1.3606034E-1,1.2413793E-1,-2.1581294E-1,-1.9301002E-1,-1.9069588E-1,-1.5567243E-1,-7.575306E-2,5.0490755E-3,4.45986E-2,-4.300343E-2,-1.2439778E-1,-5.855196E-2,-1.8583E-1,-1.4779556E-1,-1.3846156E-1,5.4289315E-2,-3.685798E-2,3.8272414E-2,1.2841293E-1,2.4737795E-1,2.6551362E-2,1.0533657E-1,-8.3623715E-2,-4.364708E-3,-1.0917237E-1,-1.6950674E-1,1.443463E-2,9.80747E-2,-5.342758E-2,7.59036E-2],"categories":[],"categories_nodes":[],"categories_segments":[],"categories_sizes":[],"default_left":[0,0,0,0,0,0,0,0,0,0,0,0,0,0,0,0,0,0,0,0,0,0,0,0,0,0,0,0,0,0,0,0,0,0,0,0,0,0,0,0,0,0,0,0,0,0,0,0,0,0,0,0,0,0,0,0,0,0,0,0,0,0,0,0,0,0,0,0,0,0,0,0,0,0,0,0,0,0,0,0,0,0,0,0,0,0,0,0,0,0,0,0,0,0,0,0,0,0,0,0,0,0,0,0,0,0,0,0,0,0,0,0,0,0,0,0,0,0,0,0,0,0,0,0,0,0,0],"id":1,"left_children":[1,3,5,7,9,11,13,15,17,19,21,23,25,27,29,31,33,35,37,39,41,43,45,47,49,51,53,55,57,59,61,63,65,67,69,71,73,75,77,79,81,83,85,87,89,91,93,95,97,99,101,103,105,107,109,111,113,115,117,119,121,123,125,-1,-1,-1,-1,-1,-1,-1,-1,-1,-1,-1,-1,-1,-1,-1,-1,-1,-1,-1,-1,-1,-1,-1,-1,-1,-1,-1,-1,-1,-1,-1,-1,-1,-1,-1,-1,-1,-1,-1,-1,-1,-1,-1,-1,-1,-1,-1,-1,-1,-1,-1,-1,-1,-1,-1,-1,-1,-1,-1,-1,-1,-1,-1,-1],"loss_changes":[7.7737854E2,5.7696735E2,4.771657E2,1.03756325E2,1.6164386E2,7.4387085E1,1.7805481E2,7.701938E1,8.652062E1,2.3480896E1,5.8310425E1,1.062561E1,5.3055298E1,5.437545E1,1.1017746E2,8.021082E0,2.5902054E1,1.8535324E1,1.0323381E1,2.0509674E1,3.181366E0,1.2014954E1,1.2963715E1,4.550232E0,4.736389E0,6.9688034E0,1.39479065E1,2.351241E1,2.119284E1,2.9435638E1,2.5383888E1,4.1559286E0,7.3324146E0,4.9754105E0,1.0237854E1,5.062149E0,6.3608513E0,5.507531E0,9.991529E0,1.6343689E-1,3.6863708E0,1.5432434E0,7.467382E-1,1.0296936E1,1.1108688E1,2.6822662E0,3.5430145E0,6.5779877E-1,2.2089844E0,1.1278076E0,2.7979126E0,4.9403152E0,5.6601386E0,4.584488E0,1.6259308E0,5.2273216E0,8.688921E0,8.018852E0,8.07114E0,1.7103249E1,1.1287231E1,1.3212475E1,1.0537336E1,0E0,0E0,0E0,0E0,0E0,0E0,0E0,0E0,0E0,0E0,0E0,0E0,0E0,0E0,0E0,0E0,0E0,0E0,0E0,0E0,0E0,0E0,0E0,0E0,0E0,0E0,0E0,0E0,0E0,0E0,0E0,0E0,0E0,0E0,0E0,0E0,0E0,0E0,0E0,0E0,0E0,0E0,0E0,0E0,0E0,0E0,0E0,0E0,0E0,0E0,0E0,0E0,0E0,0E0,0E0,0E0,0E0,0E0,0E0,0E0,0E0,0E0,0E0,0E0],"parents":[2147483647,0,0,1,1,2,2,3,3,4,4,5,5,6,6,7,7,8,8,9,9,10,10,11,11,12,12,13,13,14,14,15,15,16,16,17,17,18,18,19,19,20,20,21,21,22,22,23,23,24,24,25,25,26,26,27,27,28,28,29,29,30,30,31,31,32,32,33,33,34,34,35,35,36,36,37,37,38,38,39,39,40,40,41,41,42,42,43,43,44,44,45,45,46,46,47,47,48,48,49,49,50,50,51,51,52,52,53,53,54,54,55,55,56,56,57,57,58,58,59,59,60,60,61,61,62,62],"right_children":[2,4,6,8,10,12,14,16,18,20,22,24,26,28,30,32,34,36,38,40,42,44,46,48,50,52,54,56,58,60,62,64,66,68,70,72,74,76,78,80,82,84,86,88,90,92,94,96,98,100,102,104,106,108,110,112,114,116,118,120,122,124,126,-1,-1,-1,-1,-1,-1,-1,-1,-1,-1,-1,-1,-1,-1,-1,-1,-1,-1,-1,-1,-1,-1,-1,-1,-1,-1,-1,-1,-1,-1,-1,-1,-1,-1,-1,-1,-1,-1,-1,-1,-1,-1,-1,-1,-1,-1,-1,-1,-1,-1,-1,-1,-1,-1,-1,-1,-1,-1,-1,-1,-1,-1,-1,-1],"split_conditions":[1.5042805E3,1.5342806E3,1.6240653E3,1.269362E3,1.3229352E3,1.4823861E3,1.6878131E3,1.2839048E3,1.407891E3,1.7244028E3,1.7342714E3,1.5674147E3,1.5890148E3,1.7699514E3,1.8424885E3,9.921187E2,1.1143016E3,1.3035012E3,1.4338646E3,1.1143016E3,3.15E2,1.6280583E3,1.8238124E3,1.24351E3,1.3991068E3,1.5766808E3,1.7790265E3,1.5823423E3,1.6064557E3,1.7849814E3,1.8762026E3,2.86E2,1.02100275E3,8.1E1,1.4106787E3,1.76E2,1.3502952E3,1.5E1,1.991E3,1.7152007E3,1.2406317E3,2.001E3,1.899E3,1.4E1,1.4613716E3,1.928E3,1.9505442E3,1.7E2,3.3E2,1.2776101E3,8.7E1,2.95E2,1.538811E3,3.09E2,1.5920916E3,1.5E1,9E1,1.9415934E3,1.8731212E3,1.7671392E3,1.9416481E3,1.930703E3,2.0685952E3,-1.4924625E-1,1.5365854E-1,9.333332E-2,-4.2555925E-2,3.6935067E-1,2.2756933E-1,5.012657E-2,1.6341296E-1,-1.5051141E-1,1.4693877E-1,-1.8675193E-2,-9.094271E-2,-4.1268308E-2,3.027146E-2,-2.3000392E-3,-7.5455666E-2,4.078899E-1,1.2857142E-1,2.5750235E-1,1.8748076E-1,3.3759657E-1,4.062696E-1,2.5714284E-1,3.6734685E-2,-3.0887589E-2,7.480835E-2,1.4369747E-1,6.402188E-2,3.5217392E-1,1.621363E-1,2.459671E-1,3.5753426E-1,-2.1229614E-1,-7.663455E-9,-1.3606034E-1,1.2413793E-1,-2.1581294E-1,-1.9301002E-1,-1.9069588E-1,-1.5567243E-1,-7.575306E-2,5.0490755E-3,4.45986E-2,-4.300343E-2,-1.2439778E-1,-5.855196E-2,-1.8583E-1,-1.4779556E-1,-1.3846156E-1,5.4289315E-2,-3.685798E-2,3.8272414E-2,1.2841293E-1,2.4737795E-1,2.6551362E-2,1.0533657E-1,-8.3623715E-2,-4.364708E-3,-1.0917237E-1,-1.6950674E-1,1.443463E-2,9.80747E-2,-5.342758E-2,7.59036E-2],"split_indices":[4,5,5,4,4,5,4,5,5,5,5,4,4,5,5,5,4,5,4,4,0,5,5,5,5,5,4,4,4,4,4,0,4,0,5,2,4,2,3,5,4,3,3,2,4,3,5,2,1,5,2,1,4,1,5,1,2,5,5,5,4,5,5,0,0,0,0,0,0,0,0,0,0,0,0,0,0,0,0,0,0,0,0,0,0,0,0,0,0,0,0,0,0,0,0,0,0,0,0,0,0,0,0,0,0,0,0,0,0,0,0,0,0,0,0,0,0,0,0,0,0,0,0,0,0,0,0],"split_type":[0,0,0,0,0,0,0,0,0,0,0,0,0,0,0,0,0,0,0,0,0,0,0,0,0,0,0,0,0,0,0,0,0,0,0,0,0,0,0,0,0,0,0,0,0,0,0,0,0,0,0,0,0,0,0,0,0,0,0,0,0,0,0,0,0,0,0,0,0,0,0,0,0,0,0,0,0,0,0,0,0,0,0,0,0,0,0,0,0,0,0,0,0,0,0,0,0,0,0,0,0,0,0,0,0,0,0,0,0,0,0,0,0,0,0,0,0,0,0,0,0,0,0,0,0,0,0],"sum_hessian":[1.8336443E4,6.092444E3,1.2243999E4,3.4577776E3,2.6346665E3,5.7128887E3,6.531111E3,6.871111E2,2.7706665E3,6.3422217E2,2.0004443E3,2.7484443E3,2.9644443E3,2.5315554E3,3.9995554E3,2.8577777E2,4.013333E2,1.3008888E3,1.4697777E3,3.9466666E2,2.3955554E2,1.5355554E3,4.6488885E2,6.7955554E2,2.0688887E3,8.7022217E2,2.0942222E3,1.6026666E3,9.2888885E2,2.7631108E3,1.2364443E3,6.8888885E1,2.1688887E2,1.08888885E2,2.9244443E2,6.226666E2,6.7822217E2,7.626666E2,7.071111E2,6.0888885E1,3.3377777E2,2.3377777E2,5.7777777E0,8.311111E2,7.044444E2,2.8444443E2,1.8044443E2,8.8888885E1,5.906666E2,1.1479999E3,9.2088885E2,5.973333E2,2.728889E2,1.5106666E3,5.8355554E2,6.2622217E2,9.764444E2,4.1999997E2,5.0888885E2,1.2026666E3,1.5604443E3,7.0222217E2,5.3422217E2,6.533333E1,3.5555553E0,4.3999996E1,1.7288889E2,4.1777775E1,6.711111E1,1.3066666E2,1.6177777E2,6.1822217E2,4.444444E0,1.3822221E2,5.3999994E2,1.12888885E2,6.497777E2,4.3377774E2,2.733333E2,5.9555553E1,1.3333333E0,1.1822221E2,2.1555554E2,1.2844444E2,1.0533333E2,1.3333333E0,4.444444E0,9.2888885E1,7.3822217E2,4.6177774E2,2.4266666E2,6.666666E0,2.7777777E2,1.4088889E2,3.9555553E1,8.755555E1,1.3333333E0,5.884444E2,2.222222E0,4.4799997E2,6.9999994E2,4.253333E2,4.955555E2,5.191111E2,7.822221E1,1.1111111E2,1.6177777E2,1.4057777E3,1.04888885E2,4.1066666E2,1.7288889E2,1.1999999E1,6.1422217E2,8.1022217E2,1.6622221E2,3.5955554E2,6.0444443E1,3.2666666E2,1.8222221E2,8.5999994E2,3.4266666E2,1.1897777E3,3.7066666E2,4.1466666E2,2.8755554E2,4.7066663E2,6.3555553E1],"tree_param":{"num_deleted":"0","num_feature":"6","num_nodes":"127","size_leaf_vector":"1"}},{"base_weights":[3.581015E-1,6.7520344E-1,1.5462345E-1,3.6634016E-1,9.52479E-1,-1.6493247E-1,3.4841582E-1,7.452476E-1,2.37711E-1,1.1527998E0,8.2438225E-1,-4.333176E-1,-6.1412197E-2,5.667021E-1,1.5824388E-1,4.1598117E-1,9.059549E-1,-1.60725E-1,3.5002527E-1,1.0388479E0,1.2982516E0,7.048015E-1,1.033002E0,-2.8097737E-1,-5.7762605E-1,5.3437613E-2,-2.8169918E-1,4.4260523E-1,8.1522745E-1,2.7949827E-2,3.8166326E-1,8.866995E-1,2.6728106E-1,1.0827442E0,7.5080556E-1,-5.650365E-1,-6.4880855E-2,4.8328373E-1,2.3049906E-1,1.3152885E0,9.5701706E-1,4.1060117E-1,1.1328081E0,8.064516E-1,6.081854E-1,1.1694353E0,9.5479876E-1,-5.1872027E-1,-1.8582639E-1,-6.6204995E-1,-4.4924214E-1,-7.757709E-2,1.694383E-1,-2.2700503E-1,-4.110033E-1,5.1937926E-1,2.6393858E-1,9.6621877E-1,7.587713E-1,1.3920784E-1,-1.4258355E-1,5.3427035E-1,1.8718936E-1,9.082568E-2,2.988212E-1,1.5584404E-2,1.1489361E-1,3.2758045E-1,-1.2857145E-1,1.6085106E-1,2.4592274E-1,-4.7368433E-2,-1.7546552E-1,2.141697E-2,-5.3297456E-2,1.5888311E-1,6.8275854E-2,3.12177E-2,9.790301E-2,4.013283E-1,2.6422018E-1,2.6047128E-1,3.149516E-1,3.4319863E-1,3.1034475E-2,1.5177065E-1,2.507286E-1,1.4933695E-1,2.0710425E-1,3.6150813E-1,3.1480408E-1,2.644702E-1,3.3454546E-1,-2.069519E-1,-1.2268268E-1,-1.2300697E-2,-7.948934E-2,-1.6800003E-1,-2.1392408E-1,-1.1404665E-1,-2.0000003E-1,1.38911335E-2,-5.1912244E-2,8.177072E-2,1.4327939E-2,-4.7558546E-2,-1.1076926E-1,-1.5936762E-1,-9.265576E-2,1.3100766E-1,1.9063331E-1,4.0723972E-2,1.1576141E-1,3.0038512E-1,1.9169675E-1,2.135415E-1,3.013429E-1,1.2676044E-2,7.7062786E-2,-2.0241376E-2,-8.524026E-2,1.3000198E-1,2.4070325E-1,3.0356698E-2,1.362604E-1],"categories":[],"categories_nodes":[],"categories_segments":[],"categories_sizes":[],"default_left":[0,0,0,0,0,0,0,0,0,0,0,0,0,0,0,0,0,0,0,0,0,0,0,0,0,0,0,0,0,0,0,0,0,0,0,0,0,0,0,0,0,0,0,0,0,0,0,0,0,0,0,0,0,0,0,0,0,0,0,0,0,0,0,0,0,0,0,0,0,0,0,0,0,0,0,0,0,0,0,0,0,0,0,0,0,0,0,0,0,0,0,0,0,0,0,0,0,0,0,0,0,0,0,0,0,0,0,0,0,0,0,0,0,0,0,0,0,0,0,0,0,0,0,0,0],"id":2,"left_children":[1,3,5,7,9,11,13,15,17,19,21,23,25,27,29,31,33,35,37,39,41,43,45,47,49,51,53,55,57,59,61,63,65,67,69,71,73,75,77,79,81,-1,83,85,87,89,91,93,95,97,99,101,103,105,107,109,111,113,115,117,119,121,123,-1,-1,-1,-1,-1,-1,-1,-1,-1,-1,-1,-1,-1,-1,-1,-1,-1,-1,-1,-1,-1,-1,-1,-1,-1,-1,-1,-1,-1,-1,-1,-1,-1,-1,-1,-1,-1,-1,-1,-1,-1,-1,-1,-1,-1,-1,-1,-1,-1,-1,-1,-1,-1,-1,-1,-1,-1,-1,-1,-1,-1,-1],"loss_changes":[1.1830876E3,6.134536E2,6.918633E2,1.6514948E2,9.594629E1,1.1716028E2,2.8859808E2,4.5089264E1,1.1344789E2,2.3021362E1,5.6818848E1,2.5644455E1,7.70533E1,9.948596E1,1.0821788E2,1.9618492E1,1.5001312E1,2.1582031E1,3.1378021E1,1.7504395E1,5.9278564E0,1.394104E1,7.828125E0,1.2865711E1,6.226242E0,3.0444199E1,7.287697E0,2.9511353E1,8.447571E0,4.4596333E1,4.0542496E1,4.0201073E0,5.38634E0,4.179596E0,4.152252E0,7.7053833E-1,6.9608407E0,1.094194E1,1.26191635E1,6.457825E-1,4.3927E0,0E0,2.155365E0,5.8581543E0,6.5266113E0,2.2003174E-2,5.3385315E0,2.78405E0,4.6970997E0,1.4806366E0,3.3800087E0,1.1136397E1,1.3317989E1,7.1062202E0,3.6306877E0,1.4221588E1,1.0133694E1,2.681366E0,8.384796E0,1.621574E1,9.848688E0,2.0398865E1,1.3816114E1,0E0,0E0,0E0,0E0,0E0,0E0,0E0,0E0,0E0,0E0,0E0,0E0,0E0,0E0,0E0,0E0,0E0,0E0,0E0,0E0,0E0,0E0,0E0,0E0,0E0,0E0,0E0,0E0,0E0,0E0,0E0,0E0,0E0,0E0,0E0,0E0,0E0,0E0,0E0,0E0,0E0,0E0,0E0,0E0,0E0,0E0,0E0,0E0,0E0,0E0,0E0,0E0,0E0,0E0,0E0,0E0,0E0,0E0,0E0,0E0,0E0,0E0],"parents":[2147483647,0,0,1,1,2,2,3,3,4,4,5,5,6,6,7,7,8,8,9,9,10,10,11,11,12,12,13,13,14,14,15,15,16,16,17,17,18,18,19,19,20,20,21,21,22,22,23,23,24,24,25,25,26,26,27,27,28,28,29,29,30,30,31,31,32,32,33,33,34,34,35,35,36,36,37,37,38,38,39,39,40,40,42,42,43,43,44,44,45,45,46,46,47,47,48,48,49,49,50,50,51,51,52,52,53,53,54,54,55,55,56,56,57,57,58,58,59,59,60,60,61,61,62,62],"right_children":[2,4,6,8,10,12,14,16,18,20,22,24,26,28,30,32,34,36,38,40,42,44,46,48,50,52,54,56,58,60,62,64,66,68,70,72,74,76,78,80,82,-1,84,86,88,90,92,94,96,98,100,102,104,106,108,110,112,114,116,118,120,122,124,-1,-1,-1,-1,-1,-1,-1,-1,-1,-1,-1,-1,-1,-1,-1,-1,-1,-1,-1,-1,-1,-1,-1,-1,-1,-1,-1,-1,-1,-1,-1,-1,-1,-1,-1,-1,-1,-1,-1,-1,-1,-1,-1,-1,-1,-1,-1,-1,-1,-1,-1,-1,-1,-1,-1,-1,-1,-1,-1,-1,-1,-1],"split_conditions":[1.5321227E3,1.5021343E3,1.5890148E3,1.2901633E3,1.3956731E3,1.3926134E3,1.7152007E3,1.2619047E3,1.3110984E3,1.6641482E3,1.6772631E3,1.6628593E3,1.706707E3,1.7790265E3,1.8310093E3,9.921187E2,1.1779314E3,1.1143016E3,1.4387389E3,1.2207831E3,1.3447333E3,1.4705784E3,1.4561681E3,1.269362E3,1.3229352E3,1.4956315E3,1.8309359E3,1.6628593E3,1.600908E3,1.834968E3,1.8592714E3,9.5728107E2,1.0868091E3,1.77E2,1.3453555E3,3.3E1,1.413844E3,2.85E2,1.4254918E3,3.08E2,1.5823423E3,4.1060117E-1,1.71E2,1.5172992E3,1.5674147E3,2.5E2,1.8070435E3,1.1599943E3,1.979E3,1.7268271E3,1.8100558E3,1.5988472E3,1.6198969E3,2.001E3,1.515227E3,1.6899875E3,1.6837227E3,3.02E2,1.9566772E3,1.7197611E3,1.930703E3,1.9660975E3,2.0110316E3,9.082568E-2,2.988212E-1,1.5584404E-2,1.1489361E-1,3.2758045E-1,-1.2857145E-1,1.6085106E-1,2.4592274E-1,-4.7368433E-2,-1.7546552E-1,2.141697E-2,-5.3297456E-2,1.5888311E-1,6.8275854E-2,3.12177E-2,9.790301E-2,4.013283E-1,2.6422018E-1,2.6047128E-1,3.149516E-1,3.4319863E-1,3.1034475E-2,1.5177065E-1,2.507286E-1,1.4933695E-1,2.0710425E-1,3.6150813E-1,3.1480408E-1,2.644702E-1,3.3454546E-1,-2.069519E-1,-1.2268268E-1,-1.2300697E-2,-7.948934E-2,-1.6800003E-1,-2.1392408E-1,-1.1404665E-1,-2.0000003E-1,1.38911335E-2,-5.1912244E-2,8.177072E-2,1.4327939E-2,-4.7558546E-2,-1.1076926E-1,-1.5936762E-1,-9.265576E-2,1.3100766E-1,1.9063331E-1,4.0723972E-2,1.1576141E-1,3.0038512E-1,1.9169675E-1,2.135415E-1,3.013429E-1,1.2676044E-2,7.7062786E-2,-2.0241376E-2,-8.524026E-2,1.3000198E-1,2.4070325E-1,3.0356698E-2,1.362604E-1],"split_indices":[5,4,4,5,5,4,5,4,4,4,4,5,5,4,4,5,5,4,5,5,5,5,5,4,4,4,5,5,5,5,5,4,4,2,4,1,5,1,4,1,4,0,2,4,4,1,4,4,3,5,5,5,5,3,4,4,4,1,4,4,5,4,4,0,0,0,0,0,0,0,0,0,0,0,0,0,0,0,0,0,0,0,0,0,0,0,0,0,0,0,0,0,0,0,0,0,0,0,0,0,0,0,0,0,0,0,0,0,0,0,0,0,0,0,0,0,0,0,0,0,0,0,0,0,0],"split_type":[0,0,0,0,0,0,0,0,0,0,0,0,0,0,0,0,0,0,0,0,0,0,0,0,0,0,0,0,0,0,0,0,0,0,0,0,0,0,0,0,0,0,0,0,0,0,0,0,0,0,0,0,0,0,0,0,0,0,0,0,0,0,0,0,0,0,0,0,0,0,0,0,0,0,0,0,0,0,0,0,0,0,0,0,0,0,0,0,0,0,0,0,0,0,0,0,0,0,0,0,0,0,0,0,0,0,0,0,0,0,0,0,0,0,0,0,0,0,0,0,0,0,0,0,0],"sum_hessian":[1.8336443E4,7.1662217E3,1.1170222E4,3.3911108E3,3.7751108E3,4.2168887E3,6.953333E3,8.5822217E2,2.5328887E3,1.4693333E3,2.3057776E3,1.1728888E3,3.0439998E3,3.2364443E3,3.7168887E3,2.8266666E2,5.7555554E2,5.5688885E2,1.9759999E3,8.284444E2,6.4088885E2,1.4684443E3,8.373333E2,5.7199994E2,6.0088885E2,2.0013333E3,1.0426666E3,2.1604443E3,1.0759999E3,2.3484443E3,1.3684443E3,6.6666664E1,2.1599998E2,2.662222E2,3.093333E2,1.0577777E2,4.5111108E2,9.3288885E2,1.0431111E3,1.8577777E2,6.426666E2,4.4444443E2,1.9644443E2,7.1199994E2,7.564444E2,2.9999997E2,5.373333E2,1.6222221E2,4.0977774E2,3.5999997E2,2.4088887E2,9.3999994E2,1.0613333E3,7.346666E2,3.0799997E2,1.5097777E3,6.506666E2,2.8844443E2,7.875555E2,1.4213333E3,9.271111E2,7.657777E2,6.026666E2,1.1111111E1,5.5555553E1,7.599999E1,1.3999998E2,2.648889E2,1.3333333E0,7.733333E1,2.3199998E2,5.333333E0,1.00444435E2,2.0444443E2,2.4666666E2,7.8888885E2,1.4399998E2,4.5066663E2,5.924444E2,1.7466666E2,1.1111111E1,3.3377777E2,3.088889E2,1.9422221E2,2.222222E0,6.4888885E1,6.471111E2,3.2577777E2,4.3066663E2,2.2444443E2,7.555555E1,3.733333E2,1.6399998E2,6.133333E1,1.00888885E2,1.4533333E2,2.6444443E2,1.2399999E2,2.3599998E2,1.8488889E2,5.5999996E1,4.093333E2,5.306666E2,5.737778E2,4.875555E2,4.973333E2,2.3733331E2,1.3955554E2,1.6844443E2,8.844444E2,6.253333E2,3.182222E2,3.3244443E2,2.5866666E2,2.9777777E1,6.644444E2,1.2311111E2,7.7999994E2,6.413333E2,6.066666E2,3.2044443E2,5.5822217E2,2.0755554E2,4.5688885E2,1.4577777E2],"tree_param":{"num_deleted":"0","num_feature":"6","num_nodes":"125","size_leaf_vector":"1"}},{"base_weights":[-1.9035195E-1,-2.9186988E-1,-1.4066151E-1,-2.5240433E-1,-4.4600385E-1,-2.653335E-1,-1.1837875E-1,-3.8666978E-1,-2.2863455E-1,-5.7332337E-1,-3.8639334E-1,-2.9665625E-1,-2.0262581E-1,-3.1912172E-1,-1.04941234E-1,-2.891751E-1,-4.810951E-1,-3.4908277E-1,-1.964007E-1,-5.8866155E-1,-4.0811753E-1,-3.948074E-1,2.3493832E-1,-1.3265352E-1,-3.080512E-1,-2.518715E-1,-8.214292E-2,-4.7876182E-1,-2.516961E-1,-8.533631E-2,-1.4747036E-1,-4.4598824E-1,-2.0978552E-1,-4.1798446E-1,-5.629324E-1,-2.8291366E-1,-4.043688E-1,-1.7159833E-1,-2.8802904E-1,-6.193334E-1,-5.2137005E-1,5.937967E-3,-4.64558E-1,-4.161176E-1,-3.021858E-1,-5.549241E-2,5.9678376E-1,-3.4890124E-1,3.3221114E-2,-3.134467E-1,-1.3816913E-2,-3.5110438E-1,-1.531461E-1,2.446821E-1,-1.3740033E-1,-6.435464E-1,-4.3040216E-1,-1.8971361E-1,-4.3313065E-1,-7.188072E-2,-1.588328E-1,-2.5027332E-1,-9.277501E-2,-1.0160243E-1,-1.7684236E-1,-1.04381524E-1,-4.7849137E-2,-1.8737017E-1,-1.13614075E-1,-1.8003342E-1,-1.3063776E-1,1.20246194E-1,-8.7959774E-2,1.4722876E-1,-1.2239855E-1,-6.554626E-2,-3.196084E-2,-2.3729645E-2,-9.511525E-2,-1.869354E-1,-6.6318996E-2,-1.7039971E-1,-6.736451E-2,1.4723687E-1,-1.4425103E-1,-1.563908E-1,-7.9362355E-2,6.23852E-3,-1.259973E-1,8.251656E-3,-1.0161416E-1,1.5145455E-1,-1.133009E-1,3.2219166E-1,1.953837E-2,6.332749E-2,-1.22642875E-1,5.679437E-2,-1.2469439E-1,-9.06145E-2,-1.3775502E-1,3.4433615E-1,-6.0348492E-2,-1.0878675E-1,2.0634079E-1,-7.720727E-2,-1.868215E-2,2.0157585E-1,1.2488294E-2,1.3466628E-1,-4.572753E-2,-1.9962917E-1,-9.1730334E-2,-5.5774517E-2,-1.5910205E-1,2.0922894E-2,-7.592748E-2,-9.875872E-2,-1.6043757E-1,1.5191941E-2,-2.3891345E-2,-5.811682E-2,3.6733735E-2,-9.267947E-2,-6.0022492E-2,-4.6416897E-2,-1.2050638E-2],"categories":[],"categories_nodes":[],"categories_segments":[],"categories_sizes":[],"default_left":[0,0,0,0,0,0,0,0,0,0,0,0,0,0,0,0,0,0,0,0,0,0,0,0,0,0,0,0,0,0,0,0,0,0,0,0,0,0,0,0,0,0,0,0,0,0,0,0,0,0,0,0,0,0,0,0,0,0,0,0,0,0,0,0,0,0,0,0,0,0,0,0,0,0,0,0,0,0,0,0,0,0,0,0,0,0,0,0,0,0,0,0,0,0,0,0,0,0,0,0,0,0,0,0,0,0,0,0,0,0,0,0,0,0,0,0,0,0,0,0,0,0,0,0,0,0,0],"id":3,"left_children":[1,3,5,7,9,11,13,15,17,19,21,23,25,27,29,31,33,35,37,39,41,43,45,47,49,51,53,55,57,59,61,63,65,67,69,71,73,75,77,79,81,83,85,87,89,91,93,95,97,99,101,103,105,107,109,111,113,115,117,119,121,123,125,-1,-1,-1,-1,-1,-1,-1,-1,-1,-1,-1,-1,-1,-1,-1,-1,-1,-1,-1,-1,-1,-1,-1,-1,-1,-1,-1,-1,-1,-1,-1,-1,-1,-1,-1,-1,-1,-1,-1,-1,-1,-1,-1,-1,-1,-1,-1,-1,-1,-1,-1,-1,-1,-1,-1,-1,-1,-1,-1,-1,-1,-1,-1,-1],"loss_changes":[8.853125E1,3.4980865E1,3.2722122E1,1.4577545E1,8.694229E0,3.4497452E0,2.6952835E1,6.2105637E0,1.509903E1,7.037735E-1,4.2917786E0,2.1821365E0,3.5298176E0,6.630226E0,7.8066635E0,4.1623554E0,1.5665894E0,2.8980484E0,6.959656E0,3.7604523E-1,8.185973E-1,1.4391251E0,1.2267816E0,2.8466055E0,1.7602158E0,4.1030083E0,3.1959848E0,1.1982613E0,4.900194E0,6.3389626E0,1.66072E1,1.5559387E0,1.5344076E0,1.392971E0,4.449234E-1,2.777048E0,1.6489487E0,7.3888702E0,3.949707E0,2.0484924E-1,1.4274044E0,1.45741E0,2.1093464E-1,1.0950317E0,1.8392076E0,1.4933468E0,1.2347016E0,1.240201E0,3.276505E0,1.6743546E0,4.814204E0,2.7722797E0,2.0149622E0,2.200183E0,1.3934832E0,9.209061E-2,3.4721642E0,5.477145E0,1.0077267E0,5.1642914E0,9.767532E0,2.9608612E0,6.2902756E0,0E0,0E0,0E0,0E0,0E0,0E0,0E0,0E0,0E0,0E0,0E0,0E0,0E0,0E0,0E0,0E0,0E0,0E0,0E0,0E0,0E0,0E0,0E0,0E0,0E0,0E0,0E0,0E0,0E0,0E0,0E0,0E0,0E0,0E0,0E0,0E0,0E0,0E0,0E0,0E0,0E0,0E0,0E0,0E0,0E0,0E0,0E0,0E0,0E0,0E0,0E0,0E0,0E0,0E0,0E0,0E0,0E0,0E0,0E0,0E0,0E0,0E0,0E0,0E0],"parents":[2147483647,0,0,1,1,2,2,3,3,4,4,5,5,6,6,7,7,8,8,9,9,10,10,11,11,12,12,13,13,14,14,15,15,16,16,17,17,18,18,19,19,20,20,21,21,22,22,23,23,24,24,25,25,26,26,27,27,28,28,29,29,30,30,31,31,32,32,33,33,34,34,35,35,36,36,37,37,38,38,39,39,40,40,41,41,42,42,43,43,44,44,45,45,46,46,47,47,48,48,49,49,50,50,51,51,52,52,53,53,54,54,55,55,56,56,57,57,58,58,59,59,60,60,61,61,62,62],"right_children":[2,4,6,8,10,12,14,16,18,20,22,24,26,28,30,32,34,36,38,40,42,44,46,48,50,52,54,56,58,60,62,64,66,68,70,72,74,76,78,80,82,84,86,88,90,92,94,96,98,100,102,104,106,108,110,112,114,116,118,120,122,124,126,-1,-1,-1,-1,-1,-1,-1,-1,-1,-1,-1,-1,-1,-1,-1,-1,-1,-1,-1,-1,-1,-1,-1,-1,-1,-1,-1,-1,-1,-1,-1,-1,-1,-1,-1,-1,-1,-1,-1,-1,-1,-1,-1,-1,-1,-1,-1,-1,-1,-1,-1,-1,-1,-1,-1,-1,-1,-1,-1,-1,-1,-1,-1,-1],"split_conditions":[1.5016781E3,1.6641482E3,1.967E3,1.2207831E3,1.3396354E3,2.08E2,1.3348718E3,1.3724624E3,1.965E3,3.02E2,3.28E2,2.1E1,1.7200525E3,1.1768306E3,1.766824E3,1.0336494E3,1.96E2,1.4908787E3,9E1,1.2776101E3,3E0,2.01E3,1.999E3,1.6585662E3,1.68E2,1.72E2,1.7342714E3,4.7E1,1.7438949E3,9.6E1,1.7045287E3,1.1599943E3,1.998E3,1.0336494E3,1.1779314E3,1.8E1,1.876E3,8.8E1,6.5E1,3.22E2,2.013E3,1.7435574E3,8.5E1,1.915E3,2.011E3,1.984E3,1.4106787E3,1.4111628E3,1.8550372E3,1.21E2,1.5085721E3,1.8005197E3,1.953E3,8.5E1,1.3040579E3,1.1599943E3,1.63E2,8E1,2.001E3,2.4E1,1.7268835E3,1.6218856E3,1.33E2,-1.0160243E-1,-1.7684236E-1,-1.04381524E-1,-4.7849137E-2,-1.8737017E-1,-1.13614075E-1,-1.8003342E-1,-1.3063776E-1,1.20246194E-1,-8.7959774E-2,1.4722876E-1,-1.2239855E-1,-6.554626E-2,-3.196084E-2,-2.3729645E-2,-9.511525E-2,-1.869354E-1,-6.6318996E-2,-1.7039971E-1,-6.736451E-2,1.4723687E-1,-1.4425103E-1,-1.563908E-1,-7.9362355E-2,6.23852E-3,-1.259973E-1,8.251656E-3,-1.0161416E-1,1.5145455E-1,-1.133009E-1,3.2219166E-1,1.953837E-2,6.332749E-2,-1.22642875E-1,5.679437E-2,-1.2469439E-1,-9.06145E-2,-1.3775502E-1,3.4433615E-1,-6.0348492E-2,-1.0878675E-1,2.0634079E-1,-7.720727E-2,-1.868215E-2,2.0157585E-1,1.2488294E-2,1.3466628E-1,-4.572753E-2,-1.9962917E-1,-9.1730334E-2,-5.5774517E-2,-1.5910205E-1,2.0922894E-2,-7.592748E-2,-9.875872E-2,-1.6043757E-1,1.5191941E-2,-2.3891345E-2,-5.811682E-2,3.6733735E-2,-9.267947E-2,-6.0022492E-2,-4.6416897E-2,-1.2050638E-2],"split_indices":[5,4,3,5,5,0,4,4,3,1,0,1,5,4,4,5,0,4,2,5,2,3,3,5,2,1,5,0,5,2,5,4,3,5,5,0,3,2,0,0,3,4,2,3,3,3,5,4,5,2,5,4,3,2,4,4,0,1,3,1,4,5,0,0,0,0,0,0,0,0,0,0,0,0,0,0,0,0,0,0,0,0,0,0,0,0,0,0,0,0,0,0,0,0,0,0,0,0,0,0,0,0,0,0,0,0,0,0,0,0,0,0,0,0,0,0,0,0,0,0,0,0,0,0,0,0,0],"split_type":[0,0,0,0,0,0,0,0,0,0,0,0,0,0,0,0,0,0,0,0,0,0,0,0,0,0,0,0,0,0,0,0,0,0,0,0,0,0,0,0,0,0,0,0,0,0,0,0,0,0,0,0,0,0,0,0,0,0,0,0,0,0,0,0,0,0,0,0,0,0,0,0,0,0,0,0,0,0,0,0,0,0,0,0,0,0,0,0,0,0,0,0,0,0,0,0,0,0,0,0,0,0,0,0,0,0,0,0,0,0,0,0,0,0,0,0,0,0,0,0,0,0,0,0,0,0,0],"sum_hessian":[1.7557293E4,5.7681157E3,1.1789178E4,4.594377E3,1.1737389E3,1.7859396E3,1.0003238E4,6.8873566E2,3.9056414E3,3.71548E2,8.021909E2,1.1885321E3,5.974075E2,6.2616833E2,9.377069E3,3.4085916E2,3.478765E2,8.224738E2,3.0831675E3,3.376376E2,3.3910397E1,7.918325E2,1.0358387E1,7.803579E1,1.1104963E3,4.2329935E2,1.7410811E2,1.8412486E2,4.420435E2,6.420416E3,2.9566536E3,1.1301335E2,2.278458E2,1.9985855E2,1.4801793E2,3.7717224E2,4.4530157E2,2.4286438E3,6.5452356E2,2.2628972E2,1.11347885E2,4.1752133E0,2.9735182E1,6.4088586E2,1.5094666E2,6.215907E0,4.14248E0,3.3395405E1,4.464038E1,1.0904353E3,2.0061049E1,2.0983215E2,2.134672E2,2.4684038E1,1.4942407E2,3.898313E1,1.4514174E2,3.3100848E2,1.1103502E2,5.4285474E3,9.9186914E2,1.0255325E3,1.931121E3,6.657912E1,4.6434242E1,5.922456E1,1.6862125E2,2.9543295E1,1.7031526E2,1.11724495E2,3.6293434E1,5.027081E0,3.7214517E2,1.2547075E0,4.4404688E2,1.4100718E3,1.0185721E3,8.0283226E1,5.7424036E2,2.2360036E2,2.6893516E0,9.544105E1,1.5906841E1,2.0876067E0,2.0876067E0,2.1912363E1,7.822819E0,5.5933766E0,6.352925E2,1.5080605E1,1.3586604E2,2.0622268E0,4.1536803E0,1.6455044E0,2.4969754E0,2.9835072E0,3.04119E1,3.355124E1,1.1089144E1,1.01418634E3,7.624893E1,2.0741258E0,1.7986923E1,2.0817513E2,1.6570244E0,9.858211E1,1.1488509E2,7.20831E0,1.7475729E1,3.0120757E0,1.46412E2,3.570015E1,3.2829788E0,4.29441E1,1.0219763E2,6.496296E1,2.6604553E2,5.699918E1,5.403584E1,3.2290152E2,5.1056455E3,8.82691E2,1.09178116E2,4.7053934E2,5.5499316E2,8.8592865E2,1.0451924E3],"tree_param":{"num_deleted":"0","num_feature":"6","num_nodes":"127","size_leaf_vector":"1"}},{"base_weights":[-9.387077E-2,1.2836584E-1,-2.1590681E-1,-1.0902824E-1,3.4089282E-1,-4.0736833E-1,-6.680798E-2,1.8617252E-1,-1.8575461E-1,6.3104564E-1,2.4533965E-1,-5.171793E-1,-3.1014737E-1,6.6864595E-2,-1.9483072E-1,-2.0772447E-1,3.550486E-1,-3.797571E-1,-9.538894E-2,4.8197252E-1,7.7619827E-1,1.9244352E-1,5.5160546E-1,-4.1535288E-1,-5.4903525E-1,-1.6109006E-1,-3.916432E-1,-2.2938449E-2,2.0814598E-1,-3.1073818E-1,-1.1108371E-2,1.9580087E-1,-2.8686133E-1,6.147751E-1,2.298616E-1,-5.0683683E-1,-3.174416E-1,-1.6895911E-1,2.6695838E-3,7.754892E-1,3.9160344E-1,8.057627E-1,3.9767066E-1,1.0139001E-1,2.620608E-1,4.8924646E-1,7.9026896E-1,-6.017313E-1,-3.8087717E-1,-6.0681105E-1,-5.0980693E-1,-2.5101176E-1,-1.10541314E-1,-3.4499434E-1,-5.061376E-1,1.6774572E-1,-9.331917E-2,3.4977177E-1,1.2935638E-1,-2.5153485E-1,-4.0771866E-1,4.7840156E-2,-2.638599E-1,-3.5825875E-2,8.680356E-2,-1.150148E-1,-4.961918E-2,2.4649046E-1,1.438014E-1,3.309869E-2,1.2103041E-1,-4.6394605E-2,-1.6061103E-1,-1.5925053E-1,-8.542989E-2,-1.13466546E-1,-4.0246893E-2,8.4228136E-2,-7.7250563E-3,3.3378333E-2,2.4080585E-1,1.1159062E-1,2.341701E-1,2.921628E-1,2.2711001E-1,9.980611E-3,2.7483216E-1,5.218735E-2,3.952863E-3,9.3155235E-2,4.4260513E-2,1.4934275E-1,-1.6284451E-1,2.8569442E-1,1.6595586E-1,-1.8948856E-1,-8.364944E-2,-1.156933E-1,1.6963442E-1,-1.8275994E-1,-3.9452743E-2,-1.6861781E-1,-1.3893643E-1,-8.086853E-2,3.358227E-2,-3.5016385E-3,-5.621516E-2,-1.0905604E-1,-4.8166003E-2,-1.6187797E-1,-1.2229683E-1,4.1612685E-2,1.3612014E-1,-3.9222084E-2,2.5510393E-2,9.002899E-2,1.791269E-1,3.3441752E-2,2.177354E-1,-1.0105337E-1,-5.0512932E-2,-1.3894174E-1,-9.4971366E-2,-4.7721607E-3,8.514836E-2,-1.0623444E-1,6.6108606E-4],"categories":[],"categories_nodes":[],"categories_segments":[],"categories_sizes":[],"default_left":[0,0,0,0,0,0,0,0,0,0,0,0,0,0,0,0,0,0,0,0,0,0,0,0,0,0,0,0,0,0,0,0,0,0,0,0,0,0,0,0,0,0,0,0,0,0,0,0,0,0,0,0,0,0,0,0,0,0,0,0,0,0,0,0,0,0,0,0,0,0,0,0,0,0,0,0,0,0,0,0,0,0,0,0,0,0,0,0,0,0,0,0,0,0,0,0,0,0,0,0,0,0,0,0,0,0,0,0,0,0,0,0,0,0,0,0,0,0,0,0,0,0,0,0,0,0,0],"id":4,"left_children":[1,3,5,7,9,11,13,15,17,19,21,23,25,27,29,31,33,35,37,39,41,43,45,47,49,51,53,55,57,59,61,63,65,67,69,71,73,75,77,79,81,83,85,87,89,91,93,95,97,99,101,103,105,107,109,111,113,115,117,119,121,123,125,-1,-1,-1,-1,-1,-1,-1,-1,-1,-1,-1,-1,-1,-1,-1,-1,-1,-1,-1,-1,-1,-1,-1,-1,-1,-1,-1,-1,-1,-1,-1,-1,-1,-1,-1,-1,-1,-1,-1,-1,-1,-1,-1,-1,-1,-1,-1,-1,-1,-1,-1,-1,-1,-1,-1,-1,-1,-1,-1,-1,-1,-1,-1,-1],"loss_changes":[4.8393042E2,3.1916672E2,3.2877692E2,6.77259E1,9.238312E1,5.367285E1,1.1084844E2,4.1118744E1,4.155799E1,1.7504211E1,4.059662E1,7.448059E0,3.2456665E1,4.0213326E1,7.045002E1,5.9891214E0,1.3912861E1,5.807045E0,1.16872015E1,1.0578125E1,4.3460083E0,1.3563889E1,5.112465E0,3.4206238E0,3.768921E0,4.281254E0,9.065765E0,2.6030832E1,1.369862E1,1.1544815E1,1.909682E1,9.503113E-1,1.7623892E0,3.5280037E0,6.0399704E0,2.392109E0,3.3933105E0,6.6901226E0,5.5031576E0,1.636898E0,2.1206703E0,2.4232483E0,6.049517E0,5.9549236E0,6.693451E0,2.8822784E0,2.3513985E0,6.6321564E-1,2.39283E0,7.401123E-1,2.3693848E0,2.3216648E0,4.6218433E0,4.152588E0,1.4231033E0,4.2797365E0,9.465226E0,5.222641E0,8.37749E0,8.89798E0,3.7296371E0,1.5642092E1,5.821472E0,0E0,0E0,0E0,0E0,0E0,0E0,0E0,0E0,0E0,0E0,0E0,0E0,0E0,0E0,0E0,0E0,0E0,0E0,0E0,0E0,0E0,0E0,0E0,0E0,0E0,0E0,0E0,0E0,0E0,0E0,0E0,0E0,0E0,0E0,0E0,0E0,0E0,0E0,0E0,0E0,0E0,0E0,0E0,0E0,0E0,0E0,0E0,0E0,0E0,0E0,0E0,0E0,0E0,0E0,0E0,0E0,0E0,0E0,0E0,0E0,0E0,0E0,0E0,0E0],"parents":[2147483647,0,0,1,1,2,2,3,3,4,4,5,5,6,6,7,7,8,8,9,9,10,10,11,11,12,12,13,13,14,14,15,15,16,16,17,17,18,18,19,19,20,20,21,21,22,22,23,23,24,24,25,25,26,26,27,27,28,28,29,29,30,30,31,31,32,32,33,33,34,34,35,35,36,36,37,37,38,38,39,39,40,40,41,41,42,42,43,43,44,44,45,45,46,46,47,47,48,48,49,49,50,50,51,51,52,52,53,53,54,54,55,55,56,56,57,57,58,58,59,59,60,60,61,61,62,62],"right_children":[2,4,6,8,10,12,14,16,18,20,22,24,26,28,30,32,34,36,38,40,42,44,46,48,50,52,54,56,58,60,62,64,66,68,70,72,74,76,78,80,82,84,86,88,90,92,94,96,98,100,102,104,106,108,110,112,114,116,118,120,122,124,126,-1,-1,-1,-1,-1,-1,-1,-1,-1,-1,-1,-1,-1,-1,-1,-1,-1,-1,-1,-1,-1,-1,-1,-1,-1,-1,-1,-1,-1,-1,-1,-1,-1,-1,-1,-1,-1,-1,-1,-1,-1,-1,-1,-1,-1,-1,-1,-1,-1,-1,-1,-1,-1,-1,-1,-1,-1,-1,-1,-1,-1,-1,-1,-1],"split_conditions":[1.509179E3,1.5016781E3,1.6198969E3,1.2619047E3,1.3286481E3,1.4797367E3,1.7245466E3,1.1779314E3,1.3396354E3,1.6628593E3,1.7671392E3,1.5674147E3,1.6064557E3,1.7671392E3,1.8238124E3,9.5728107E2,1.1143016E3,1.1779314E3,1.95E2,1.1768306E3,3.06E2,1.5944982E3,1.9080533E3,1.2618082E3,1.3591333E3,1.5277948E3,1.7790265E3,1.5715991E3,1.6064557E3,1.8580248E3,1.9758981E3,9.262563E2,1.0590082E3,8.1E1,1.4106787E3,1.984E3,1.5E1,1.5E1,1.3110984E3,1.975E3,3.22E2,1.1143016E3,1.7641326E3,1.987E3,1.4702439E3,1.78E2,1.4536531E3,1.56E2,3.3E2,3.3E2,8.7E1,3.12E2,1.5502025E3,3.03E2,1.5920916E3,1.748706E3,9E1,2.01E3,2.0685952E3,1.7152007E3,1.7534055E3,1.9859316E3,2.017202E3,-3.5825875E-2,8.680356E-2,-1.150148E-1,-4.961918E-2,2.4649046E-1,1.438014E-1,3.309869E-2,1.2103041E-1,-4.6394605E-2,-1.6061103E-1,-1.5925053E-1,-8.542989E-2,-1.13466546E-1,-4.0246893E-2,8.4228136E-2,-7.7250563E-3,3.3378333E-2,2.4080585E-1,1.1159062E-1,2.341701E-1,2.921628E-1,2.2711001E-1,9.980611E-3,2.7483216E-1,5.218735E-2,3.952863E-3,9.3155235E-2,4.4260513E-2,1.4934275E-1,-1.6284451E-1,2.8569442E-1,1.6595586E-1,-1.8948856E-1,-8.364944E-2,-1.156933E-1,1.6963442E-1,-1.8275994E-1,-3.9452743E-2,-1.6861781E-1,-1.3893643E-1,-8.086853E-2,3.358227E-2,-3.5016385E-3,-5.621516E-2,-1.0905604E-1,-4.8166003E-2,-1.6187797E-1,-1.2229683E-1,4.1612685E-2,1.3612014E-1,-3.9222084E-2,2.5510393E-2,9.002899E-2,1.791269E-1,3.3441752E-2,2.177354E-1,-1.0105337E-1,-5.0512932E-2,-1.3894174E-1,-9.4971366E-2,-4.7721607E-3,8.514836E-2,-1.0623444E-1,6.6108606E-4],"split_indices":[4,5,5,4,4,5,4,5,5,5,5,4,4,5,5,4,4,5,1,4,0,5,5,5,5,5,4,4,4,4,4,5,5,0,5,3,2,2,4,3,0,4,5,3,4,2,4,2,1,0,2,1,4,1,5,5,2,3,5,5,5,5,5,0,0,0,0,0,0,0,0,0,0,0,0,0,0,0,0,0,0,0,0,0,0,0,0,0,0,0,0,0,0,0,0,0,0,0,0,0,0,0,0,0,0,0,0,0,0,0,0,0,0,0,0,0,0,0,0,0,0,0,0,0,0,0,0],"split_type":[0,0,0,0,0,0,0,0,0,0,0,0,0,0,0,0,0,0,0,0,0,0,0,0,0,0,0,0,0,0,0,0,0,0,0,0,0,0,0,0,0,0,0,0,0,0,0,0,0,0,0,0,0,0,0,0,0,0,0,0,0,0,0,0,0,0,0,0,0,0,0,0,0,0,0,0,0,0,0,0,0,0,0,0,0,0,0,0,0,0,0,0,0,0,0,0,0,0,0,0,0,0,0,0,0,0,0,0,0,0,0,0,0,0,0,0,0,0,0,0,0,0,0,0,0,0,0],"sum_hessian":[1.7841445E4,6.324328E3,1.1517117E4,2.9876213E3,3.3367065E3,5.0414863E3,6.475631E3,6.1603436E2,2.3715872E3,8.252332E2,2.5114734E3,2.3654236E3,2.6760627E3,3.1681467E3,3.3074841E3,1.8478964E2,4.3124472E2,7.5261816E2,1.6189689E3,4.0925E2,4.159832E2,2.1429807E3,3.6849255E2,5.67016E2,1.7984076E3,9.4698553E2,1.7290773E3,1.9374672E3,1.2306796E3,2.0276079E3,1.2798762E3,3.0056229E1,1.5473341E2,1.3898355E2,2.9226117E2,2.4528201E2,5.0733615E2,9.245704E2,6.9439856E2,9.455529E1,3.1469473E2,3.8480017E2,3.118303E1,9.295994E2,1.2133813E3,2.9457474E2,7.39178E1,8.594374E1,4.8107224E2,7.214228E2,1.0769849E3,3.3934882E2,6.076367E2,1.2313835E3,4.9769376E2,5.2195056E2,1.4155166E3,4.3868884E2,7.9199066E2,1.2612506E3,7.663573E2,1.0384843E3,2.4139203E2,6.8149576E0,2.3241272E1,8.501776E1,6.9715645E1,5.2987152E1,8.59964E1,1.7404155E2,1.1821963E2,1.8863878E1,2.2641814E2,6.534437E1,4.419918E2,1.3043312E2,7.9413727E2,6.3561604E1,6.308369E2,3.9195523E0,9.0635735E1,3.0143472E2,1.3259997E1,8.220668E1,3.0259348E2,1.8936789E1,1.224624E1,5.0949704E2,4.201024E2,8.514258E2,3.6195557E2,2.9266425E2,1.9104865E0,4.2115273E1,3.1802528E1,7.778551E1,8.158239E0,4.792505E2,1.8217685E0,7.175349E2,3.8878903E0,5.029842E2,5.740006E2,3.230933E2,1.6255526E1,2.6623648E2,3.4140027E2,1.1181068E3,1.1327675E2,3.68149E2,1.2954477E2,4.7518893E2,4.6761604E1,1.170249E3,2.4526752E2,3.6715677E2,7.153206E1,7.7008655E2,2.1904118E1,6.2106635E2,6.401842E2,4.7404327E2,2.92314E2,8.183547E2,2.2012955E2,1.8000069E2,6.1391342E1],"tree_param":{"num_deleted":"0","num_feature":"6","num_nodes":"127","size_leaf_vector":"1"}},{"base_weights":[2.633934E-1,5.0869554E-1,1.3223606E-1,3.0213067E-1,6.923612E-1,-1.4579652E-1,2.5277996E-1,4.833299E-1,1.7883888E-1,8.277656E-1,6.248239E-1,-3.4151055E-2,-3.2085723E-1,4.0375215E-1,1.03642434E-1,1.8528031E-1,5.779884E-1,-1.4375305E-1,2.6845762E-1,7.493819E-1,9.199321E-1,5.5458176E-1,7.5029176E-1,-1.5856485E-1,9.868397E-2,-5.1083636E-1,-2.2332363E-1,2.716396E-1,5.238487E-1,-1.8425882E-2,2.5064152E-1,5.430705E-1,3.5968713E-2,8.21439E-1,5.104713E-1,-4.9711654E-1,-6.734708E-2,4.30478E-1,2.0313157E-1,8.6632085E-1,6.5023947E-1,9.7596693E-1,8.836493E-1,7.0811605E-1,5.357271E-1,8.1597257E-1,6.8818897E-1,-5.0110984E-1,-1.1849222E-1,1.8495817E-1,-2.9492803E-2,-5.8031154E-1,-3.90937E-1,-1.6736814E-1,-3.5801455E-1,3.6221838E-1,1.3181363E-1,4.3339753E-1,6.157486E-1,5.6729194E-2,-1.661954E-1,2.9944238E-1,-8.1609376E-2,3.5518073E-2,1.9054098E-1,4.8798807E-2,-6.4836025E-2,1.5133564E-1,2.5529882E-1,1.3238966E-1,1.9356321E-1,-1.5793927E-1,-3.1432852E-2,-5.7428446E-2,1.462894E-2,1.8941797E-1,1.1541122E-1,3.4631386E-2,7.657067E-2,2.8617418E-1,2.2520675E-1,5.7524923E-2,1.9947931E-1,2.9540357E-1,1.1353798E-1,2.8045297E-1,2.45314E-1,2.577093E-1,1.7248651E-1,1.4375392E-1,1.7671192E-1,2.1363309E-1,2.75355E-1,1.8153232E-1,2.3789777E-1,-1.8251841E-1,-1.13034464E-1,-6.162888E-2,-2.294266E-2,1.3404441E-1,4.6058066E-2,-1.8035207E-2,1.1798495E-1,-1.4219978E-1,-1.8994857E-1,-1.21327594E-1,2.0467128E-1,-8.187711E-2,-3.177767E-2,-4.4894647E-2,-1.2470948E-1,1.38227E-1,9.029835E-2,7.6022185E-2,1.7654546E-2,1.3988876E-1,6.430956E-2,2.1425161E-1,1.6784418E-1,-1.6647749E-2,3.7409548E-2,-2.9518241E-2,-8.7153144E-2,7.221098E-2,1.5928572E-1,-4.868516E-2,4.88895E-2],"categories":[],"categories_nodes":[],"categories_segments":[],"categories_sizes":[],"default_left":[0,0,0,0,0,0,0,0,0,0,0,0,0,0,0,0,0,0,0,0,0,0,0,0,0,0,0,0,0,0,0,0,0,0,0,0,0,0,0,0,0,0,0,0,0,0,0,0,0,0,0,0,0,0,0,0,0,0,0,0,0,0,0,0,0,0,0,0,0,0,0,0,0,0,0,0,0,0,0,0,0,0,0,0,0,0,0,0,0,0,0,0,0,0,0,0,0,0,0,0,0,0,0,0,0,0,0,0,0,0,0,0,0,0,0,0,0,0,0,0,0,0,0,0,0,0,0],"id":5,"left_children":[1,3,5,7,9,11,13,15,17,19,21,23,25,27,29,31,33,35,37,39,41,43,45,47,49,51,53,55,57,59,61,63,65,67,69,71,73,75,77,79,81,83,85,87,89,91,93,95,97,99,101,103,105,107,109,111,113,115,117,119,121,123,125,-1,-1,-1,-1,-1,-1,-1,-1,-1,-1,-1,-1,-1,-1,-1,-1,-1,-1,-1,-1,-1,-1,-1,-1,-1,-1,-1,-1,-1,-1,-1,-1,-1,-1,-1,-1,-1,-1,-1,-1,-1,-1,-1,-1,-1,-1,-1,-1,-1,-1,-1,-1,-1,-1,-1,-1,-1,-1,-1,-1,-1,-1,-1,-1],"loss_changes":[6.1277014E2,2.5155078E2,4.1606488E2,6.972818E1,3.1598633E1,7.337591E1,1.9492816E2,3.557596E1,5.38483E1,7.7316895E0,2.027063E1,3.7923855E1,2.697644E1,6.812781E1,7.819487E1,1.634551E1,1.5351135E1,1.0909493E1,1.5333199E1,6.8023376E0,2.1786499E-1,3.9878845E0,2.8632202E0,1.6204243E1,1.2279812E1,3.8980865E0,7.2344017E0,2.592871E1,1.8459839E1,2.6457966E1,3.2078682E1,3.448595E0,6.972359E0,1.5070648E0,6.7406006E0,7.7272415E-1,4.8271832E0,3.599022E0,4.7234344E0,2.2058868E0,2.2154694E0,6.6448975E-1,3.598938E-1,2.7595444E0,3.7807617E0,3.6071167E0,3.3334656E0,1.4218082E0,3.8637285E0,5.3928204E0,5.8163223E0,1.4498596E0,2.9499836E0,4.4179688E0,3.341507E0,7.366974E0,7.1526775E0,8.105637E0,5.7759705E0,1.2053947E1,6.74094E0,2.3315857E1,5.037493E0,0E0,0E0,0E0,0E0,0E0,0E0,0E0,0E0,0E0,0E0,0E0,0E0,0E0,0E0,0E0,0E0,0E0,0E0,0E0,0E0,0E0,0E0,0E0,0E0,0E0,0E0,0E0,0E0,0E0,0E0,0E0,0E0,0E0,0E0,0E0,0E0,0E0,0E0,0E0,0E0,0E0,0E0,0E0,0E0,0E0,0E0,0E0,0E0,0E0,0E0,0E0,0E0,0E0,0E0,0E0,0E0,0E0,0E0,0E0,0E0,0E0,0E0,0E0,0E0],"parents":[2147483647,0,0,1,1,2,2,3,3,4,4,5,5,6,6,7,7,8,8,9,9,10,10,11,11,12,12,13,13,14,14,15,15,16,16,17,17,18,18,19,19,20,20,21,21,22,22,23,23,24,24,25,25,26,26,27,27,28,28,29,29,30,30,31,31,32,32,33,33,34,34,35,35,36,36,37,37,38,38,39,39,40,40,41,41,42,42,43,43,44,44,45,45,46,46,47,47,48,48,49,49,50,50,51,51,52,52,53,53,54,54,55,55,56,56,57,57,58,58,59,59,60,60,61,61,62,62],"right_children":[2,4,6,8,10,12,14,16,18,20,22,24,26,28,30,32,34,36,38,40,42,44,46,48,50,52,54,56,58,60,62,64,66,68,70,72,74,76,78,80,82,84,86,88,90,92,94,96,98,100,102,104,106,108,110,112,114,116,118,120,122,124,126,-1,-1,-1,-1,-1,-1,-1,-1,-1,-1,-1,-1,-1,-1,-1,-1,-1,-1,-1,-1,-1,-1,-1,-1,-1,-1,-1,-1,-1,-1,-1,-1,-1,-1,-1,-1,-1,-1,-1,-1,-1,-1,-1,-1,-1,-1,-1,-1,-1,-1,-1,-1,-1,-1,-1,-1,-1,-1,-1,-1,-1,-1,-1,-1],"split_conditions":[1.5016781E3,1.5021343E3,1.5431584E3,1.3447333E3,1.3546179E3,1.6676669E3,1.7045287E3,1.2269714E3,1.3165359E3,1.6641482E3,1.6772631E3,1.4462789E3,1.3831249E3,1.6899875E3,1.7849814E3,1.0336494E3,1.1301003E3,1.1143016E3,1.18E2,1.2618082E3,1.2207831E3,1.2E1,8.7E1,1.2269714E3,1.5920916E3,1.3229352E3,1.7944381E3,1.6240653E3,1.7882719E3,1.834968E3,1.9859316E3,9.5728107E2,1.2618082E3,4.3E1,1.96E2,2.75E2,8.6E1,3.1E1,1.4111628E3,8.5E1,1.5110807E3,2.93E2,8.7E1,1.43E2,1.5779877E3,7.3E1,1.7639767E3,1.1599943E3,1.3547485E3,1.4E1,1.33E2,1.7268271E3,3.28E2,1.4613716E3,7.7E1,1.98E3,1.984E3,1.6829213E3,1.600908E3,1.6487395E3,1.9223721E3,1.9758981E3,2.0110316E3,3.5518073E-2,1.9054098E-1,4.8798807E-2,-6.4836025E-2,1.5133564E-1,2.5529882E-1,1.3238966E-1,1.9356321E-1,-1.5793927E-1,-3.1432852E-2,-5.7428446E-2,1.462894E-2,1.8941797E-1,1.1541122E-1,3.4631386E-2,7.657067E-2,2.8617418E-1,2.2520675E-1,5.7524923E-2,1.9947931E-1,2.9540357E-1,1.1353798E-1,2.8045297E-1,2.45314E-1,2.577093E-1,1.7248651E-1,1.4375392E-1,1.7671192E-1,2.1363309E-1,2.75355E-1,1.8153232E-1,2.3789777E-1,-1.8251841E-1,-1.13034464E-1,-6.162888E-2,-2.294266E-2,1.3404441E-1,4.6058066E-2,-1.8035207E-2,1.1798495E-1,-1.4219978E-1,-1.8994857E-1,-1.21327594E-1,2.0467128E-1,-8.187711E-2,-3.177767E-2,-4.4894647E-2,-1.2470948E-1,1.38227E-1,9.029835E-2,7.6022185E-2,1.7654546E-2,1.3988876E-1,6.430956E-2,2.1425161E-1,1.6784418E-1,-1.6647749E-2,3.7409548E-2,-2.9518241E-2,-8.7153144E-2,7.221098E-2,1.5928572E-1,-4.868516E-2,4.88895E-2],"split_indices":[5,4,4,5,5,5,5,4,4,4,4,4,4,4,4,5,5,4,1,5,5,2,2,4,5,4,5,5,4,5,5,4,5,0,0,0,2,2,4,2,4,1,2,0,4,2,4,4,4,2,2,5,1,4,0,3,3,5,5,4,5,4,4,0,0,0,0,0,0,0,0,0,0,0,0,0,0,0,0,0,0,0,0,0,0,0,0,0,0,0,0,0,0,0,0,0,0,0,0,0,0,0,0,0,0,0,0,0,0,0,0,0,0,0,0,0,0,0,0,0,0,0,0,0,0,0,0],"split_type":[0,0,0,0,0,0,0,0,0,0,0,0,0,0,0,0,0,0,0,0,0,0,0,0,0,0,0,0,0,0,0,0,0,0,0,0,0,0,0,0,0,0,0,0,0,0,0,0,0,0,0,0,0,0,0,0,0,0,0,0,0,0,0,0,0,0,0,0,0,0,0,0,0,0,0,0,0,0,0,0,0,0,0,0,0,0,0,0,0,0,0,0,0,0,0,0,0,0,0,0,0,0,0,0,0,0,0,0,0,0,0,0,0,0,0,0,0,0,0,0,0,0,0,0,0,0,0],"sum_hessian":[1.9047082E4,6.6349424E3,1.241214E4,3.1240422E3,3.5109004E3,3.753815E3,8.658324E3,1.2637769E3,1.8602655E3,1.1646516E3,2.3462488E3,2.2927817E3,1.4610332E3,4.301848E3,4.356476E3,3.05334E2,9.584429E2,4.0430908E2,1.4559563E3,6.343201E2,5.3033154E2,1.5076326E3,8.386161E2,1.1838187E3,1.1089629E3,4.9419214E2,9.66841E2,2.050001E3,2.2518474E3,2.3805435E3,1.9759329E3,8.912639E1,2.1620763E2,2.0567195E2,7.527709E2,7.090061E1,3.3340848E2,4.1675046E2,1.0392059E3,2.8748816E2,3.4683197E2,1.9825287E2,3.3207867E2,1.6089572E2,1.3467369E3,4.0166754E2,4.3694852E2,1.2277974E2,1.0610391E3,6.625594E2,4.4640356E2,3.104583E2,1.8373383E2,6.846537E2,2.8218735E2,1.2431211E3,8.0688E2,1.137749E3,1.1140983E3,1.5783937E3,8.0214966E2,1.7229635E3,2.5296935E2,1.6286583E1,7.2839806E1,1.4412732E2,7.208031E1,1.9082876E1,1.8658908E2,5.0023547E2,2.5253542E2,6.564817E1,5.252443E0,1.6085852E2,1.7254996E2,7.4955444E1,3.41795E2,3.8852097E2,6.5068494E2,1.594513E2,1.2803685E2,1.12048645E1,3.356271E2,1.9476524E2,3.4876354E0,1.795189E2,1.5255977E2,7.286492E1,8.80308E1,6.583882E2,6.883487E2,2.0285266E2,1.9881488E2,2.4751163E2,1.8943689E2,6.3817314E1,5.8962425E1,3.4444775E2,7.1659125E2,6.958936E1,5.9297E2,4.1705148E2,2.9352087E1,1.063986E2,2.0405971E2,1.8206863E2,1.6651912E0,2.5063399E2,4.3401968E2,6.196198E1,2.2022536E2,4.7388672E2,7.692343E2,3.0167578E2,5.0520422E2,9.881948E2,1.4955421E2,4.0099304E2,7.131052E2,5.954503E2,9.829434E2,5.2021606E2,2.8193356E2,1.3759059E3,3.470576E2,1.9047603E2,6.2493324E1],"tree_param":{"num_deleted":"0","num_feature":"6","num_nodes":"127","size_leaf_vector":"1"}},{"base_weights":[-1.4921239E-1,-2.2616546E-1,-1.0318183E-1,-1.82719E-1,-3.1720492E-1,-2.1336463E-1,-8.532148E-2,-2.833904E-1,-1.5873347E-1,-4.7362152E-1,-2.6993605E-1,-2.4233279E-1,-1.515978E-1,-3.5883042E-1,-7.811897E-2,-1.6529672E-1,-3.0375984E-1,-2.4296902E-1,-1.1414249E-1,-5.4625213E-1,-4.2439333E-1,-4.991726E-1,-2.547059E-1,3.229036E-1,-2.4584459E-1,-5.317576E-1,-1.3285224E-1,-5.849001E-1,-3.036174E-1,-6.8771966E-2,-1.3836022E-1,-6.2721364E-2,-4.5882457E-1,-1.1472386E-1,-3.2085988E-1,-4.327128E-1,-2.1677503E-1,-8.8737845E-2,-2.1690667E-1,-4.2975393E-1,-5.6304866E-1,-3.6765036E-1,-5.0573456E-1,-2.073282E-1,-5.2712035E-1,-2.0151125E-1,-3.4210834E-1,-2.8727147E-1,2.9386666E-1,-8.54858E-2,-2.5761893E-1,-1.9553614E-1,-2.780551E-1,7.2877514E-1,-1.4158086E-1,-3.5279384E-1,-1.8738519E-1,-2.4462569E-1,-5.489915E-1,-6.179679E-2,-1.8139663E-1,-2.3646306E-1,-9.093442E-2,-5.921154E-2,2.3229469E-2,-1.7795739E-1,4.9666963E-3,-5.6984235E-2,8.15134E-2,-1.068017E-1,-8.2606554E-2,-8.381046E-2,-1.6337118E-1,-7.8021124E-2,-3.9004367E-2,-4.0502407E-2,-9.409055E-3,-1.3960789E-2,-7.398563E-2,-1.5702786E-1,4.469157E-2,-1.4016998E-1,-1.7538276E-1,-1.2011916E-1,6.5672304E-3,3.6742408E-2,-1.5388481E-1,1.6472115E-1,-1.3812615E-1,-1.2831922E-1,-1.9387214E-1,-7.982182E-2,-4.856283E-2,-1.073853E-1,-4.8807435E-2,-1.3835147E-1,2.4611475E-2,2.8436122E-4,-1.192244E-1,-1.23790726E-1,-7.404447E-2,-1.4176261E-1,1.4837754E-1,5.483178E-2,3.2544172E-1,-5.9615005E-2,-1.1269504E-2,-1.6871879E-2,-1.5736562E-1,-2.9922485E-2,-1.2267927E-1,2.7247125E-2,-1.7199467E-1,-2.8761737E-2,-1.2958729E-2,-6.1832536E-2,1.02884725E-1,-7.953685E-3,-7.716422E-2,-6.017895E-3,-4.5073748E-2],"categories":[],"categories_nodes":[],"categories_segments":[],"categories_sizes":[],"default_left":[0,0,0,0,0,0,0,0,0,0,0,0,0,0,0,0,0,0,0,0,0,0,0,0,0,0,0,0,0,0,0,0,0,0,0,0,0,0,0,0,0,0,0,0,0,0,0,0,0,0,0,0,0,0,0,0,0,0,0,0,0,0,0,0,0,0,0,0,0,0,0,0,0,0,0,0,0,0,0,0,0,0,0,0,0,0,0,0,0,0,0,0,0,0,0,0,0,0,0,0,0,0,0,0,0,0,0,0,0,0,0,0,0,0,0,0,0,0,0,0,0],"id":6,"left_children":[1,3,5,7,9,11,13,15,17,19,21,23,25,27,29,31,33,35,37,39,41,43,45,47,49,51,53,55,57,59,61,63,65,67,69,71,73,75,77,79,81,83,85,87,89,91,93,95,-1,97,99,-1,101,103,105,107,-1,109,111,113,115,117,119,-1,-1,-1,-1,-1,-1,-1,-1,-1,-1,-1,-1,-1,-1,-1,-1,-1,-1,-1,-1,-1,-1,-1,-1,-1,-1,-1,-1,-1,-1,-1,-1,-1,-1,-1,-1,-1,-1,-1,-1,-1,-1,-1,-1,-1,-1,-1,-1,-1,-1,-1,-1,-1,-1,-1,-1,-1,-1],"loss_changes":[5.962439E1,2.4867737E1,2.072042E1,1.0261505E1,1.4914261E1,2.592247E0,1.7839653E1,1.9223099E0,1.2928368E1,1.4515381E0,5.3355484E0,2.0614967E0,3.2912884E0,2.7237682E0,4.967327E0,3.6693277E0,2.2200623E0,5.835724E0,5.8737965E0,1.2338638E-1,1.1299324E0,6.772804E-1,6.761978E0,2.9249964E0,1.8527832E0,4.837227E-1,3.4945269E0,1.9029999E-1,2.5999832E0,6.0011787E0,5.4974747E0,1.7548056E0,2.0313826E0,1.7804587E0,9.250412E-1,2.312971E0,3.9115105E0,4.804922E0,2.2498875E0,1.5824223E0,5.7304382E-2,2.1977825E0,5.8174515E-1,2.181771E0,7.5785446E-1,2.3003159E0,1.5177307E0,3.0713454E-1,0E0,1.8719316E0,1.4465637E0,0E0,1.5496349E0,7.124479E-1,2.6505108E0,4.1907907E-1,0E0,3.6273212E0,6.093464E-1,4.564993E0,5.847683E0,1.6746254E0,3.3652563E0,0E0,0E0,0E0,0E0,0E0,0E0,0E0,0E0,0E0,0E0,0E0,0E0,0E0,0E0,0E0,0E0,0E0,0E0,0E0,0E0,0E0,0E0,0E0,0E0,0E0,0E0,0E0,0E0,0E0,0E0,0E0,0E0,0E0,0E0,0E0,0E0,0E0,0E0,0E0,0E0,0E0,0E0,0E0,0E0,0E0,0E0,0E0,0E0,0E0,0E0,0E0,0E0,0E0,0E0,0E0,0E0,0E0,0E0],"parents":[2147483647,0,0,1,1,2,2,3,3,4,4,5,5,6,6,7,7,8,8,9,9,10,10,11,11,12,12,13,13,14,14,15,15,16,16,17,17,18,18,19,19,20,20,21,21,22,22,23,23,24,24,25,25,26,26,27,27,28,28,29,29,30,30,31,31,32,32,33,33,34,34,35,35,36,36,37,37,38,38,39,39,40,40,41,41,42,42,43,43,44,44,45,45,46,46,47,47,49,49,50,50,52,52,53,53,54,54,55,55,57,57,58,58,59,59,60,60,61,61,62,62],"right_children":[2,4,6,8,10,12,14,16,18,20,22,24,26,28,30,32,34,36,38,40,42,44,46,48,50,52,54,56,58,60,62,64,66,68,70,72,74,76,78,80,82,84,86,88,90,92,94,96,-1,98,100,-1,102,104,106,108,-1,110,112,114,116,118,120,-1,-1,-1,-1,-1,-1,-1,-1,-1,-1,-1,-1,-1,-1,-1,-1,-1,-1,-1,-1,-1,-1,-1,-1,-1,-1,-1,-1,-1,-1,-1,-1,-1,-1,-1,-1,-1,-1,-1,-1,-1,-1,-1,-1,-1,-1,-1,-1,-1,-1,-1,-1,-1,-1,-1,-1,-1,-1],"split_conditions":[1.5321227E3,1.5941222E3,1.967E3,1.964E3,1.3336196E3,2.1E2,1.2406317E3,1.3724624E3,1.3447333E3,1.2207831E3,1.936E3,9E0,2.1E1,6E1,1.8862487E3,1.955E3,3.1E1,1.0336494E3,9.1E1,1.975E3,1.7151865E3,1.6E1,1.7245466E3,1.22E2,2.1E1,1.963E3,1.5342806E3,1.01E2,2.46E2,3.09E2,1.7392656E3,8.7E1,1.3502952E3,1.5131871E3,2.06E2,1.1599943E3,2.008E3,8.8E1,1.3783015E3,1.26E2,9E1,1.56E2,2E0,1.6257119E3,1.4561681E3,1.985E3,2.015E3,8E1,2.9386666E-1,1.7611788E3,1.3229352E3,-1.9553614E-1,1.6042704E3,1.4838813E3,1.7200525E3,1.7392656E3,-1.8738519E-1,1.7045287E3,1.5342806E3,1.5801259E3,3.15E2,1.979E3,2.005E3,-5.921154E-2,2.3229469E-2,-1.7795739E-1,4.9666963E-3,-5.6984235E-2,8.15134E-2,-1.068017E-1,-8.2606554E-2,-8.381046E-2,-1.6337118E-1,-7.8021124E-2,-3.9004367E-2,-4.0502407E-2,-9.409055E-3,-1.3960789E-2,-7.398563E-2,-1.5702786E-1,4.469157E-2,-1.4016998E-1,-1.7538276E-1,-1.2011916E-1,6.5672304E-3,3.6742408E-2,-1.5388481E-1,1.6472115E-1,-1.3812615E-1,-1.2831922E-1,-1.9387214E-1,-7.982182E-2,-4.856283E-2,-1.073853E-1,-4.8807435E-2,-1.3835147E-1,2.4611475E-2,2.8436122E-4,-1.192244E-1,-1.23790726E-1,-7.404447E-2,-1.4176261E-1,1.4837754E-1,5.483178E-2,3.2544172E-1,-5.9615005E-2,-1.1269504E-2,-1.6871879E-2,-1.5736562E-1,-2.9922485E-2,-1.2267927E-1,2.7247125E-2,-1.7199467E-1,-2.8761737E-2,-1.2958729E-2,-6.1832536E-2,1.02884725E-1,-7.953685E-3,-7.716422E-2,-6.017895E-3,-4.5073748E-2],"split_indices":[5,4,3,3,5,0,4,4,5,5,3,0,2,0,4,3,1,5,2,3,4,0,4,1,1,3,5,1,0,1,5,2,4,5,1,4,3,2,5,2,0,2,2,4,5,3,3,1,0,4,4,0,4,4,5,5,0,5,5,4,0,3,3,0,0,0,0,0,0,0,0,0,0,0,0,0,0,0,0,0,0,0,0,0,0,0,0,0,0,0,0,0,0,0,0,0,0,0,0,0,0,0,0,0,0,0,0,0,0,0,0,0,0,0,0,0,0,0,0,0,0],"split_type":[0,0,0,0,0,0,0,0,0,0,0,0,0,0,0,0,0,0,0,0,0,0,0,0,0,0,0,0,0,0,0,0,0,0,0,0,0,0,0,0,0,0,0,0,0,0,0,0,0,0,0,0,0,0,0,0,0,0,0,0,0,0,0,0,0,0,0,0,0,0,0,0,0,0,0,0,0,0,0,0,0,0,0,0,0,0,0,0,0,0,0,0,0,0,0,0,0,0,0,0,0,0,0,0,0,0,0,0,0,0,0,0,0,0,0,0,0,0,0,0,0],"sum_hessian":[1.6838207E4,6.300774E3,1.0537434E4,4.2673076E3,2.0334662E3,1.4683079E3,9.069126E3,8.190017E2,3.448306E3,4.6980908E2,1.5636571E3,9.9754425E2,4.707637E2,2.3144327E2,8.837683E3,1.2182508E2,6.9717664E2,1.1920289E3,2.2562769E3,1.8571355E2,2.8409552E2,9.543551E1,1.4682217E3,5.5979E0,9.9194635E2,2.0836315E1,4.4992737E2,4.354693E1,1.8789635E2,7.65247E3,1.1852124E3,9.11765E1,3.0648582E1,5.8473858E1,6.3870276E2,1.4271465E2,1.0493143E3,1.8105491E3,4.457278E2,2.6751911E1,1.5896162E2,1.706037E2,1.1349184E2,9.076166E0,8.6359344E1,9.147775E2,5.5344415E2,3.1932158E0,2.4046838E0,6.841671E1,9.235296E2,1.3079264E1,7.7570505E0,3.684932E0,4.4624246E2,7.8068013E0,3.5740128E1,1.5308847E2,3.4807865E1,7.2076294E3,4.4484088E2,3.8494568E2,8.002668E2,4.6292866E1,4.4883636E1,2.3701504E1,6.9470787E0,4.9371624E1,9.102232E0,3.5651965E2,2.8218314E2,6.1669773E1,8.104487E1,6.9866675E2,3.5064755E2,1.00151385E3,8.090353E2,6.65712E1,3.7915665E2,2.3107327E1,3.6445854E0,3.336369E1,1.2559794E2,1.5734833E2,1.3255377E1,1.1072298E0,1.12384605E2,1.9823153E0,7.093851E0,4.958123E1,3.6778114E1,3.4579745E2,5.689801E2,5.0762534E2,4.581879E1,2.0018487E0,1.1913671E0,5.435282E1,1.406389E1,5.7749157E1,8.6578046E2,6.5074406E0,1.24961E0,2.0517557E0,1.6331764E0,2.8744098E2,1.5880147E2,3.350071E0,4.4567304E0,8.220622E1,7.0882256E1,1.1747091E0,3.3633156E1,2.543669E3,4.6639604E3,4.2539923E2,1.9441664E1,3.482968E1,3.50116E2,3.6520245E2,4.3506433E2],"tree_param":{"num_deleted":"0","num_feature":"6","num_nodes":"121","size_leaf_vector":"1"}},{"base_weights":[-7.5227596E-2,1.0243654E-1,-1.7406029E-1,-1.16321705E-1,2.4349801E-1,-3.7052912E-1,-7.110632E-2,8.1829056E-2,-1.9965881E-1,4.653399E-1,1.7014028E-1,-4.887226E-1,-3.0587193E-1,3.6723506E-2,-1.6308396E-1,-1.9352534E-1,1.8863578E-1,-3.755659E-1,-1.3177796E-1,5.9800684E-1,3.5386536E-1,9.434328E-2,3.2348123E-1,-4.4192123E-1,-5.527394E-1,-2.2219895E-1,-3.9847657E-1,-3.6811788E-2,1.5956993E-1,-2.5441033E-1,4.59486E-3,6.2381983E-2,-2.9046723E-1,5.359524E-1,1.3123582E-1,-2.1574925E-1,-4.1949093E-1,-1.6877174E-1,-3.3325486E-2,7.323459E-1,5.1642954E-1,2.979166E-1,6.4585125E-1,-9.90886E-2,1.1684945E-1,2.6078734E-1,4.7926596E-1,-5.882825E-1,-4.0885413E-1,-5.764572E-1,-4.8422956E-1,-3.1480175E-1,-1.725244E-1,-3.5977155E-1,-5.2479136E-1,7.0330404E-2,-9.350769E-2,2.641865E-1,7.93021E-2,-3.1997153E-1,-1.800883E-1,5.7557516E-2,-1.799429E-1,8.9618005E-2,-1.1033253E-2,-1.2409834E-1,-4.3484837E-2,1.3694175E-1,2.620395E-1,-1.268924E-1,4.3526046E-2,-7.400031E-2,1.2649558E-1,-1.3294001E-1,-2.1413404E-2,-5.7976212E-2,1.943652E-2,-3.666493E-2,1.7600374E-2,6.353674E-2,2.2079325E-1,1.2438729E-1,1.9749029E-1,5.1157E-2,1.1133312E-1,2.0467307E-1,2.086497E-2,-5.131834E-2,1.3234271E-1,4.2057186E-2,-4.7951723E-3,1.0820387E-1,6.2249213E-2,1.8560353E-1,1.1346476E-1,-5.32802E-2,-1.784089E-1,-4.3095585E-2,-1.2625399E-1,-1.2626687E-1,-1.7574626E-1,-1.4691444E-1,4.5165293E-2,-5.315406E-2,-1.07628405E-1,-5.5494074E-2,4.159678E-2,-1.3033536E-1,-9.140976E-2,-5.520187E-2,-1.5906192E-1,1.9119923E-1,1.7069327E-2,-3.8036242E-2,1.7662305E-2,6.8346426E-2,1.5434551E-1,-2.2610018E-3,5.670535E-2,-8.066365E-2,-1.20087676E-1,-3.5193466E-2,-9.853039E-2,9.515425E-3,1.2295855E-1,-1.2696943E-1,-2.8598545E-2],"categories":[],"categories_nodes":[],"categories_segments":[],"categories_sizes":[],"default_left":[0,0,0,0,0,0,0,0,0,0,0,0,0,0,0,0,0,0,0,0,0,0,0,0,0,0,0,0,0,0,0,0,0,0,0,0,0,0,0,0,0,0,0,0,0,0,0,0,0,0,0,0,0,0,0,0,0,0,0,0,0,0,0,0,0,0,0,0,0,0,0,0,0,0,0,0,0,0,0,0,0,0,0,0,0,0,0,0,0,0,0,0,0,0,0,0,0,0,0,0,0,0,0,0,0,0,0,0,0,0,0,0,0,0,0,0,0,0,0,0,0,0,0,0,0,0,0],"id":7,"left_children":[1,3,5,7,9,11,13,15,17,19,21,23,25,27,29,31,33,35,37,39,41,43,45,47,49,51,53,55,57,59,61,63,65,67,69,71,73,75,77,79,81,83,85,87,89,91,93,95,97,99,101,103,105,107,109,111,113,115,117,119,121,123,125,-1,-1,-1,-1,-1,-1,-1,-1,-1,-1,-1,-1,-1,-1,-1,-1,-1,-1,-1,-1,-1,-1,-1,-1,-1,-1,-1,-1,-1,-1,-1,-1,-1,-1,-1,-1,-1,-1,-1,-1,-1,-1,-1,-1,-1,-1,-1,-1,-1,-1,-1,-1,-1,-1,-1,-1,-1,-1,-1,-1,-1,-1,-1,-1],"loss_changes":[3.0286652E2,1.9029074E2,2.241482E2,3.9942665E1,6.0928818E1,2.8970459E1,7.214221E1,2.1109425E1,2.0277168E1,1.3557205E1,3.2732048E1,3.7876892E0,1.9017334E1,3.0258772E1,6.0112206E1,4.998351E0,1.0232161E1,3.233101E0,4.4736385E0,4.2646027E0,8.112392E0,8.229908E0,8.977943E0,3.5460205E0,6.378784E-1,5.914665E0,5.527176E0,1.2737229E1,1.0511034E1,1.2325119E1,1.3547615E1,1.3228599E0,2.5532913E0,1.5587234E0,3.475892E0,2.1561666E0,3.0161896E0,5.1227665E0,2.7641582E0,1.4220428E-1,3.5831146E0,3.9319992E0,1.6490555E0,7.746698E0,5.2466927E0,3.4745636E0,3.5169754E0,2.6817322E-1,1.9797363E0,3.5646057E-1,6.0082626E-1,2.6699104E0,3.307745E0,3.5613327E0,4.0444946E-1,5.49166E0,6.959859E0,4.835125E0,6.7766633E0,5.428116E0,1.107476E1,9.790996E0,6.3230305E0,0E0,0E0,0E0,0E0,0E0,0E0,0E0,0E0,0E0,0E0,0E0,0E0,0E0,0E0,0E0,0E0,0E0,0E0,0E0,0E0,0E0,0E0,0E0,0E0,0E0,0E0,0E0,0E0,0E0,0E0,0E0,0E0,0E0,0E0,0E0,0E0,0E0,0E0,0E0,0E0,0E0,0E0,0E0,0E0,0E0,0E0,0E0,0E0,0E0,0E0,0E0,0E0,0E0,0E0,0E0,0E0,0E0,0E0,0E0,0E0,0E0,0E0,0E0,0E0],"parents":[2147483647,0,0,1,1,2,2,3,3,4,4,5,5,6,6,7,7,8,8,9,9,10,10,11,11,12,12,13,13,14,14,15,15,16,16,17,17,18,18,19,19,20,20,21,21,22,22,23,23,24,24,25,25,26,26,27,27,28,28,29,29,30,30,31,31,32,32,33,33,34,34,35,35,36,36,37,37,38,38,39,39,40,40,41,41,42,42,43,43,44,44,45,45,46,46,47,47,48,48,49,49,50,50,51,51,52,52,53,53,54,54,55,55,56,56,57,57,58,58,59,59,60,60,61,61,62,62],"right_children":[2,4,6,8,10,12,14,16,18,20,22,24,26,28,30,32,34,36,38,40,42,44,46,48,50,52,54,56,58,60,62,64,66,68,70,72,74,76,78,80,82,84,86,88,90,92,94,96,98,100,102,104,106,108,110,112,114,116,118,120,122,124,126,-1,-1,-1,-1,-1,-1,-1,-1,-1,-1,-1,-1,-1,-1,-1,-1,-1,-1,-1,-1,-1,-1,-1,-1,-1,-1,-1,-1,-1,-1,-1,-1,-1,-1,-1,-1,-1,-1,-1,-1,-1,-1,-1,-1,-1,-1,-1,-1,-1,-1,-1,-1,-1,-1,-1,-1,-1,-1,-1,-1,-1,-1,-1,-1],"split_conditions":[1.5042805E3,1.4729395E3,1.5766808E3,1.297004E3,1.3286481E3,1.4195282E3,1.6990566E3,1.1779314E3,1.3035012E3,1.2406317E3,1.6676669E3,1.6641482E3,1.6423921E3,1.7508832E3,1.8238124E3,1.02100275E3,1.0581733E3,1.983E3,1.4416167E3,1.1143016E3,1.7820918E3,1.4E1,1.7974968E3,1.2322091E3,1.3783015E3,1.4823861E3,1.803718E3,1.5715991E3,1.6064557E3,1.7152007E3,1.9498572E3,4.3E1,1.81E2,2.23E2,9E0,3.15E2,2.88E2,2.95E2,1.53E2,1.4755391E3,1.6955143E3,1.5582716E3,2.85E2,1.6414319E3,2.76E2,1.979E3,1.419954E3,1.95E3,1.5110807E3,1.944E3,1.7E2,1.5346172E3,3.24E2,8.7E1,1.4251718E3,1.919E3,9E1,1.9415934E3,2.001E3,1.8200714E3,1.8762026E3,2.0685952E3,4E1,8.9618005E-2,-1.1033253E-2,-1.2409834E-1,-4.3484837E-2,1.3694175E-1,2.620395E-1,-1.268924E-1,4.3526046E-2,-7.400031E-2,1.2649558E-1,-1.3294001E-1,-2.1413404E-2,-5.7976212E-2,1.943652E-2,-3.666493E-2,1.7600374E-2,6.353674E-2,2.2079325E-1,1.2438729E-1,1.9749029E-1,5.1157E-2,1.1133312E-1,2.0467307E-1,2.086497E-2,-5.131834E-2,1.3234271E-1,4.2057186E-2,-4.7951723E-3,1.0820387E-1,6.2249213E-2,1.8560353E-1,1.1346476E-1,-5.32802E-2,-1.784089E-1,-4.3095585E-2,-1.2625399E-1,-1.2626687E-1,-1.7574626E-1,-1.4691444E-1,4.5165293E-2,-5.315406E-2,-1.07628405E-1,-5.5494074E-2,4.159678E-2,-1.3033536E-1,-9.140976E-2,-5.520187E-2,-1.5906192E-1,1.9119923E-1,1.7069327E-2,-3.8036242E-2,1.7662305E-2,6.8346426E-2,1.5434551E-1,-2.2610018E-3,5.670535E-2,-8.066365E-2,-1.20087676E-1,-3.5193466E-2,-9.853039E-2,9.515425E-3,1.2295855E-1,-1.2696943E-1,-2.8598545E-2],"split_indices":[4,5,5,4,4,5,4,5,5,4,5,4,4,5,5,4,4,3,5,4,5,2,5,5,5,5,4,4,4,5,4,0,0,0,1,0,1,1,0,5,5,5,1,5,0,3,4,3,4,3,2,4,1,2,5,3,2,5,3,4,4,5,0,0,0,0,0,0,0,0,0,0,0,0,0,0,0,0,0,0,0,0,0,0,0,0,0,0,0,0,0,0,0,0,0,0,0,0,0,0,0,0,0,0,0,0,0,0,0,0,0,0,0,0,0,0,0,0,0,0,0,0,0,0,0,0,0],"split_type":[0,0,0,0,0,0,0,0,0,0,0,0,0,0,0,0,0,0,0,0,0,0,0,0,0,0,0,0,0,0,0,0,0,0,0,0,0,0,0,0,0,0,0,0,0,0,0,0,0,0,0,0,0,0,0,0,0,0,0,0,0,0,0,0,0,0,0,0,0,0,0,0,0,0,0,0,0,0,0,0,0,0,0,0,0,0,0,0,0,0,0,0,0,0,0,0,0,0,0,0,0,0,0,0,0,0,0,0,0,0,0,0,0,0,0,0,0,0,0,0,0,0,0,0,0,0,0],"sum_hessian":[1.724647E4,6.164669E3,1.1081802E4,2.416827E3,3.7478418E3,3.8094888E3,7.2723125E3,7.1552954E2,1.7012974E3,9.3001874E2,2.817823E3,1.3447406E3,2.464748E3,3.3479497E3,3.9243628E3,1.997499E2,5.157796E2,4.7245093E2,1.2288464E3,4.2265195E2,5.073668E2,1.8867906E3,9.310325E2,7.8138715E2,5.6335345E2,1.2966019E3,1.1681462E3,2.0947454E3,1.2532045E3,2.5402803E3,1.3840825E3,5.4977283E1,1.4477261E2,7.19693E1,4.4381033E2,1.0313108E2,3.6931982E2,8.9269836E2,3.3614807E2,1.5667201E2,2.6597992E2,4.2747638E2,7.9890396E1,1.9629639E2,1.6904943E3,6.657732E2,2.6525928E2,1.4090851E2,6.4047864E2,4.129704E2,1.5038306E2,4.5083066E2,8.457712E2,8.9710583E2,2.710404E2,7.248E2,1.3699454E3,5.4308575E2,7.1011865E2,1.3479325E3,1.1923479E3,1.0759664E3,3.0811612E2,1.5653909E1,3.9323376E1,7.740209E1,6.737052E1,6.0155823E1,1.1813478E1,1.0101168E1,4.3370917E2,9.894458E1,4.1864986E0,3.4557672E2,2.3743109E1,8.0815796E2,8.454038E1,1.7078969E2,1.6535838E2,1.4963986E0,1.5517561E2,1.5714034E2,1.0883959E2,1.5720023E2,2.7027615E2,7.497222E1,4.9181776E0,1.738222E2,2.247419E1,1.4377933E3,2.5270096E2,2.2960654E2,4.3616666E2,1.09317856E2,1.5594142E2,2.6079745E0,1.3830054E2,2.8271013E1,6.1220764E2,2.6054266E1,3.869161E2,1.4932129E2,1.0617714E0,1.1036094E2,3.4046973E2,8.136098E2,3.2161423E1,3.7784656E2,5.192593E2,4.7865934E0,2.662538E2,1.5698775E1,7.091012E2,1.1245212E3,2.4542413E2,4.758598E2,6.722596E1,3.9690445E2,3.132142E2,8.265223E2,5.214102E2,8.390655E2,3.5328238E2,1.00345874E3,7.250773E1,7.847582E1,2.2964029E2],"tree_param":{"num_deleted":"0","num_feature":"6","num_nodes":"127","size_leaf_vector":"1"}},{"base_weights":[1.9878978E-1,3.6083752E-1,8.576092E-2,1.8496428E-1,4.862876E-1,-1.4877017E-1,1.7374597E-1,3.498161E-1,8.71678E-2,6.044416E-1,4.1406614E-1,-4.30346E-1,-9.975968E-2,2.6413065E-1,4.858476E-2,1.2942575E-1,4.1820768E-1,-1.653302E-1,1.4219998E-1,7.345772E-1,5.63129E-1,3.3655384E-1,5.223245E-1,-3.0929852E-1,-5.2994674E-1,-3.274009E-2,-2.5417075E-1,2.0223382E-1,4.1986677E-1,-7.911211E-2,1.4437793E-1,4.5827806E-1,2.7032733E-2,5.651786E-1,3.4414613E-1,-4.4109127E-1,-9.9592835E-2,2.0011403E-1,6.431069E-2,7.443791E-1,4.5833704E-1,5.2602565E-1,7.254851E-1,3.445618E-1,1.3306217E-2,5.921622E-1,4.6391898E-1,-5.516693E-1,-2.4115404E-1,-3.4443712E-1,-5.5819225E-1,-1.0400393E-1,2.5523223E-2,-3.3934614E-1,-1.8102805E-1,2.4942587E-1,8.286213E-2,3.624515E-1,4.921303E-1,-4.0460754E-2,-2.9748052E-1,1.84923E-1,-4.1381415E-2,1.5031558E-1,-1.1636417E-1,3.5402115E-2,-5.828594E-2,1.7601414E-1,3.894259E-2,7.785579E-2,1.2817083E-1,-1.8149021E-1,-1.0477966E-1,-6.355952E-2,6.0834E-4,7.066665E-2,-1.6403703E-2,-3.3489133E-3,4.2628936E-2,2.4049775E-1,2.0259702E-1,2.1057287E-1,-8.010804E-2,1.5843178E-1,-1.7616713E-1,2.2606719E-1,1.366396E-1,1.2058137E-1,9.308788E-2,1.9500564E-1,-3.6928132E-2,1.8175757E-1,4.0450122E-2,1.2973121E-1,1.9874673E-1,3.3489455E-2,-1.7790127E-1,-9.9802725E-2,-2.9635552E-2,-1.253835E-1,2.079983E-1,-1.366598E-1,-1.8108624E-1,-8.53088E-3,-4.7223657E-2,6.0021345E-2,8.105061E-4,-1.23484775E-1,-5.338217E-2,-4.513064E-2,-1.3698234E-1,5.9935868E-2,1.0112668E-1,5.2376267E-2,6.9505717E-3,1.2201103E-1,4.0691387E-2,7.7852E-2,1.554582E-1,-3.830608E-2,7.41225E-3,1.9848661E-1,-9.3359046E-2,4.1736934E-2,1.1153638E-1,-1.9291079E-2,1.4465368E-1],"categories":[],"categories_nodes":[],"categories_segments":[],"categories_sizes":[],"default_left":[0,0,0,0,0,0,0,0,0,0,0,0,0,0,0,0,0,0,0,0,0,0,0,0,0,0,0,0,0,0,0,0,0,0,0,0,0,0,0,0,0,0,0,0,0,0,0,0,0,0,0,0,0,0,0,0,0,0,0,0,0,0,0,0,0,0,0,0,0,0,0,0,0,0,0,0,0,0,0,0,0,0,0,0,0,0,0,0,0,0,0,0,0,0,0,0,0,0,0,0,0,0,0,0,0,0,0,0,0,0,0,0,0,0,0,0,0,0,0,0,0,0,0,0,0,0,0],"id":8,"left_children":[1,3,5,7,9,11,13,15,17,19,21,23,25,27,29,31,33,35,37,39,41,43,45,47,49,51,53,55,57,59,61,63,65,67,69,71,73,75,77,79,81,83,85,87,89,91,93,95,97,99,101,103,105,107,109,111,113,115,117,119,121,123,125,-1,-1,-1,-1,-1,-1,-1,-1,-1,-1,-1,-1,-1,-1,-1,-1,-1,-1,-1,-1,-1,-1,-1,-1,-1,-1,-1,-1,-1,-1,-1,-1,-1,-1,-1,-1,-1,-1,-1,-1,-1,-1,-1,-1,-1,-1,-1,-1,-1,-1,-1,-1,-1,-1,-1,-1,-1,-1,-1,-1,-1,-1,-1,-1],"loss_changes":[3.510241E2,1.7366284E2,2.3304517E2,5.2854225E1,3.8967773E1,4.2477776E1,9.28882E1,1.8351013E1,2.8651299E1,8.948242E0,2.3786194E1,5.3397446E0,2.7163708E1,4.587967E1,4.2150043E1,9.773874E0,9.944183E0,6.6476965E0,7.619919E0,7.860718E-1,7.6063232E0,4.310257E0,4.5777893E0,3.3099785E0,1.1126022E0,7.6097536E0,4.8886223E0,1.921228E1,5.4444733E0,1.2455667E1,1.4834686E1,2.6896725E0,4.506636E0,2.8354263E0,4.2621155E0,8.535938E-1,3.4159958E0,8.772305E0,4.2465777E0,1.0426025E0,3.167708E0,2.8181458E0,1.5065308E0,3.0734558E0,3.6699862E0,3.2893677E0,3.792328E0,1.2992115E0,2.110425E0,2.9992213E0,7.25441E-1,3.3224049E0,4.018001E0,4.195362E0,3.553278E0,1.057785E1,5.3005605E0,7.5628204E0,3.486557E0,7.1438146E0,3.1261692E0,1.3779625E1,4.273667E0,0E0,0E0,0E0,0E0,0E0,0E0,0E0,0E0,0E0,0E0,0E0,0E0,0E0,0E0,0E0,0E0,0E0,0E0,0E0,0E0,0E0,0E0,0E0,0E0,0E0,0E0,0E0,0E0,0E0,0E0,0E0,0E0,0E0,0E0,0E0,0E0,0E0,0E0,0E0,0E0,0E0,0E0,0E0,0E0,0E0,0E0,0E0,0E0,0E0,0E0,0E0,0E0,0E0,0E0,0E0,0E0,0E0,0E0,0E0,0E0,0E0,0E0,0E0,0E0],"parents":[2147483647,0,0,1,1,2,2,3,3,4,4,5,5,6,6,7,7,8,8,9,9,10,10,11,11,12,12,13,13,14,14,15,15,16,16,17,17,18,18,19,19,20,20,21,21,22,22,23,23,24,24,25,25,26,26,27,27,28,28,29,29,30,30,31,31,32,32,33,33,34,34,35,35,36,36,37,37,38,38,39,39,40,40,41,41,42,42,43,43,44,44,45,45,46,46,47,47,48,48,49,49,50,50,51,51,52,52,53,53,54,54,55,55,56,56,57,57,58,58,59,59,60,60,61,61,62,62],"right_children":[2,4,6,8,10,12,14,16,18,20,22,24,26,28,30,32,34,36,38,40,42,44,46,48,50,52,54,56,58,60,62,64,66,68,70,72,74,76,78,80,82,84,86,88,90,92,94,96,98,100,102,104,106,108,110,112,114,116,118,120,122,124,126,-1,-1,-1,-1,-1,-1,-1,-1,-1,-1,-1,-1,-1,-1,-1,-1,-1,-1,-1,-1,-1,-1,-1,-1,-1,-1,-1,-1,-1,-1,-1,-1,-1,-1,-1,-1,-1,-1,-1,-1,-1,-1,-1,-1,-1,-1,-1,-1,-1,-1,-1,-1,-1,-1,-1,-1,-1,-1,-1,-1,-1,-1,-1,-1],"split_conditions":[1.5342806E3,1.4860309E3,1.5431584E3,1.3447333E3,1.3956731E3,1.3110984E3,1.7463182E3,1.2130697E3,1.2901096E3,1.2207831E3,1.6464441E3,1.6628593E3,1.706707E3,1.7882719E3,1.7511957E3,9.921187E2,1.1779314E3,1.1143016E3,1.95E2,3.14E2,1.7487737E3,3.24E2,8.7E1,1.1599943E3,1.97E3,1.4486241E3,1.4613716E3,1.6829213E3,1.8762026E3,1.9223721E3,1.9610835E3,2.86E2,1.2618082E3,1.4725756E3,1.3897646E3,8.1E1,8.5E1,1.5131871E3,1.419954E3,8.5E1,1.986E3,3.31E2,2.014E3,8.8E1,1.935E3,3.12E2,1.8623081E3,1.979E3,2.001E3,1.968E3,1.7244028E3,1.98E3,1.4E1,1.95E2,2.013E3,1.6899875E3,8.5E1,1.7152007E3,7.9E1,1.6487395E3,1.955E3,1.9660975E3,2.75E2,1.5031558E-1,-1.1636417E-1,3.5402115E-2,-5.828594E-2,1.7601414E-1,3.894259E-2,7.785579E-2,1.2817083E-1,-1.8149021E-1,-1.0477966E-1,-6.355952E-2,6.0834E-4,7.066665E-2,-1.6403703E-2,-3.3489133E-3,4.2628936E-2,2.4049775E-1,2.0259702E-1,2.1057287E-1,-8.010804E-2,1.5843178E-1,-1.7616713E-1,2.2606719E-1,1.366396E-1,1.2058137E-1,9.308788E-2,1.9500564E-1,-3.6928132E-2,1.8175757E-1,4.0450122E-2,1.2973121E-1,1.9874673E-1,3.3489455E-2,-1.7790127E-1,-9.9802725E-2,-2.9635552E-2,-1.253835E-1,2.079983E-1,-1.366598E-1,-1.8108624E-1,-8.53088E-3,-4.7223657E-2,6.0021345E-2,8.105061E-4,-1.23484775E-1,-5.338217E-2,-4.513064E-2,-1.3698234E-1,5.9935868E-2,1.0112668E-1,5.2376267E-2,6.9505717E-3,1.2201103E-1,4.0691387E-2,7.7852E-2,1.554582E-1,-3.830608E-2,7.41225E-3,1.9848661E-1,-9.3359046E-2,4.1736934E-2,1.1153638E-1,-1.9291079E-2,1.4465368E-1],"split_indices":[5,4,4,5,5,4,5,4,4,5,4,5,5,4,4,5,5,4,1,1,4,1,2,4,3,4,4,5,4,5,5,0,5,4,4,0,2,5,4,2,3,0,3,2,3,0,4,3,3,3,5,3,2,0,3,4,2,5,2,4,3,4,1,0,0,0,0,0,0,0,0,0,0,0,0,0,0,0,0,0,0,0,0,0,0,0,0,0,0,0,0,0,0,0,0,0,0,0,0,0,0,0,0,0,0,0,0,0,0,0,0,0,0,0,0,0,0,0,0,0,0,0,0,0,0,0,0],"split_type":[0,0,0,0,0,0,0,0,0,0,0,0,0,0,0,0,0,0,0,0,0,0,0,0,0,0,0,0,0,0,0,0,0,0,0,0,0,0,0,0,0,0,0,0,0,0,0,0,0,0,0,0,0,0,0,0,0,0,0,0,0,0,0,0,0,0,0,0,0,0,0,0,0,0,0,0,0,0,0,0,0,0,0,0,0,0,0,0,0,0,0,0,0,0,0,0,0,0,0,0,0,0,0,0,0,0,0,0,0,0,0,0,0,0,0,0,0,0,0,0,0,0,0,0,0,0,0],"sum_hessian":[1.91655E4,7.8741943E3,1.1291306E4,3.279297E3,4.5948975E3,3.080172E3,8.211133E3,1.2200791E3,2.059218E3,1.7403398E3,2.8545574E3,4.5549194E2,2.6246802E3,4.767321E3,3.443812E3,2.8963345E2,9.304456E2,3.6813605E2,1.6910819E3,4.1531335E2,1.3250265E3,1.6658959E3,1.1886616E3,2.0746252E2,2.4802943E2,1.8311232E3,7.93557E2,3.4130957E3,1.3542252E3,1.4761748E3,1.9676373E3,6.794405E1,2.216894E2,3.0954327E2,6.2090234E2,6.976589E1,2.9837018E2,9.6901105E2,7.2207086E2,3.9944498E2,1.5868361E1,1.0819968E3,2.430296E2,1.6255593E3,4.033647E1,5.371873E2,6.514743E2,4.397176E1,1.6349077E2,3.4517982E1,2.1351144E2,8.2331433E2,1.00780884E3,3.6494052E2,4.2861652E2,2.4452917E3,9.678039E2,7.579946E2,5.9623065E2,1.2551904E3,2.2098428E2,1.615116E3,3.5252136E2,6.5062935E1,2.8811207E0,1.5743982E2,6.424959E1,2.946224E2,1.4920878E1,3.096491E2,3.1125323E2,2.3047014E1,4.6718876E1,1.4124045E2,1.5712971E2,8.5074835E2,1.18262726E2,3.669166E2,3.5515427E2,2.1253966E2,1.8690532E2,1.1903558E1,3.964804E0,1.0805034E3,1.4934214E0,2.1852069E2,2.450891E1,6.038341E2,1.0217252E3,6.452198E0,3.3884274E1,5.2125183E2,1.5935534E1,5.6506555E2,8.640875E1,2.4796824E0,4.1492077E1,9.870294E1,6.478782E1,3.2792465E1,1.7255198E0,6.8881065E1,1.4463039E2,3.4156473E2,4.817496E2,1.1563338E2,8.921755E2,2.5100305E2,1.1393746E2,3.871808E2,4.143574E1,1.5633281E3,8.819636E2,3.8077634E2,5.870275E2,6.3358704E2,1.24407555E2,6.1176243E1,5.350544E2,5.3634546E2,7.1884503E2,2.4497643E0,2.1853452E2,1.2985829E3,3.1653308E2,3.3857526E2,1.3946104E1],"tree_param":{"num_deleted":"0","num_feature":"6","num_nodes":"127","size_leaf_vector":"1"}},{"base_weights":[-1.15139134E-1,-1.8694262E-1,-8.2616776E-2,-1.582175E-1,-3.1464523E-1,-1.8089913E-1,-6.4617395E-2,-2.4369325E-1,-1.341307E-1,-4.531284E-1,-2.544041E-1,-2.0788448E-1,-1.2852755E-1,-2.139497E-1,-5.5593576E-2,-1.958939E-1,-3.0774435E-1,-2.5764757E-1,-1.0918117E-1,-4.8436034E-1,-3.129211E-1,-2.636085E-1,3.3218524E-1,-1.7856671E-1,-2.4919343E-1,-4.2156634E-1,-1.1245731E-1,-1.7030455E-1,-4.0089062E-1,-4.742681E-2,-1.095997E-1,-1.7669658E-1,-3.8305882E-1,-3.1844354E-1,1.5376253E-1,-1.805863E-1,-3.4746093E-1,-8.812334E-2,-1.9201507E-1,-5.039475E-1,-2.9416516E-1,-4.421187E-1,-5.3860534E-2,-2.876825E-1,-1.6358875E-1,-1.13946564E-1,4.6621475E-1,-5.090328E-1,-1.6625616E-1,-2.594595E-1,1.4301409E-2,-4.5992598E-1,-1.2420689E-1,-1.543464E-1,-2.0185743E-2,6.798311E-3,-2.3630458E-1,-3.352261E-1,-5.599512E-1,-4.0799893E-2,-1.277842E-1,-1.3780111E-1,1.0082195E-2,-7.016039E-2,-5.749491E-3,-7.297999E-2,-1.6124849E-1,-9.016325E-2,-1.7403324E-1,-2.1123307E-2,2.4127351E-1,-9.794343E-2,-3.3747658E-2,-7.831069E-2,-1.3409333E-1,-3.828967E-2,-1.011817E-2,-1.0703977E-1,-4.0329017E-2,-1.6221634E-1,-1.3804275E-1,7.578233E-2,-1.0665126E-1,-1.508914E-1,-6.506932E-2,1.0854539E-1,-9.381311E-2,-1.3845004E-1,-8.249484E-2,5.8095343E-2,-6.156383E-2,3.041153E-1,6.2185615E-2,-1.7747332E-1,1.489417E-1,-5.46843E-2,-3.017986E-3,-7.9387695E-2,7.9072036E-2,8.608227E-2,-1.04638636E-1,-1.8060714E-1,-1.0564939E-1,-1.4492957E-1,1.5582493E-1,-7.479997E-2,-1.9558683E-2,-2.184367E-2,7.166625E-2,-8.550917E-2,3.4116052E-2,-1.5001406E-1,-6.1324004E-2,-8.633711E-2,-1.7212394E-1,-1.7706035E-1,-9.624026E-2,-1.1515649E-2,-8.3096035E-2,-4.3940075E-2,8.2167044E-2,-6.5982915E-2,-2.7939213E-2,6.9917075E-2,-1.2952047E-2],"categories":[],"categories_nodes":[],"categories_segments":[],"categories_sizes":[],"default_left":[0,0,0,0,0,0,0,0,0,0,0,0,0,0,0,0,0,0,0,0,0,0,0,0,0,0,0,0,0,0,0,0,0,0,0,0,0,0,0,0,0,0,0,0,0,0,0,0,0,0,0,0,0,0,0,0,0,0,0,0,0,0,0,0,0,0,0,0,0,0,0,0,0,0,0,0,0,0,0,0,0,0,0,0,0,0,0,0,0,0,0,0,0,0,0,0,0,0,0,0,0,0,0,0,0,0,0,0,0,0,0,0,0,0,0,0,0,0,0,0,0,0,0,0,0],"id":9,"left_children":[1,3,5,7,9,11,13,15,17,19,21,23,25,27,29,31,33,35,37,39,41,43,45,47,49,51,53,55,57,59,61,63,65,67,69,71,73,75,77,79,81,83,85,87,89,-1,91,93,95,97,99,101,103,105,107,109,111,113,115,117,119,121,123,-1,-1,-1,-1,-1,-1,-1,-1,-1,-1,-1,-1,-1,-1,-1,-1,-1,-1,-1,-1,-1,-1,-1,-1,-1,-1,-1,-1,-1,-1,-1,-1,-1,-1,-1,-1,-1,-1,-1,-1,-1,-1,-1,-1,-1,-1,-1,-1,-1,-1,-1,-1,-1,-1,-1,-1,-1,-1,-1,-1,-1,-1],"loss_changes":[3.7852814E1,1.8491165E1,1.9735443E1,8.466743E0,7.6192627E0,2.4144669E0,1.2704117E1,2.714611E0,9.903877E0,1.0735321E0,3.5882225E0,1.3341293E0,2.7310276E0,4.3162193E0,3.92021E0,1.8070889E0,1.9528618E0,3.6806793E0,4.663109E0,6.973419E-1,1.7766271E0,1.4913445E0,1.1751819E0,2.6383553E0,1.2751007E0,2.8860474E-1,2.164053E0,5.114295E0,8.6694336E-1,4.112631E0,3.9446564E0,4.2743387E0,8.98674E-1,1.5921974E0,1.428921E0,2.8758564E0,2.0222187E0,4.5971165E0,5.1044044E0,8.042908E-2,8.8114667E-1,3.8092184E-1,2.1616943E0,1.0069237E0,1.9172752E0,0E0,1.1013398E0,2.2486248E0,1.6170635E0,1.2922478E0,1.9387099E0,1.9341373E-1,1.3673531E0,3.2480145E0,2.419938E0,3.7680871E0,2.5782127E0,6.717205E-1,1.33190155E-2,4.06384E0,4.4575596E0,3.4491425E0,2.6667647E0,0E0,0E0,0E0,0E0,0E0,0E0,0E0,0E0,0E0,0E0,0E0,0E0,0E0,0E0,0E0,0E0,0E0,0E0,0E0,0E0,0E0,0E0,0E0,0E0,0E0,0E0,0E0,0E0,0E0,0E0,0E0,0E0,0E0,0E0,0E0,0E0,0E0,0E0,0E0,0E0,0E0,0E0,0E0,0E0,0E0,0E0,0E0,0E0,0E0,0E0,0E0,0E0,0E0,0E0,0E0,0E0,0E0,0E0,0E0,0E0,0E0,0E0],"parents":[2147483647,0,0,1,1,2,2,3,3,4,4,5,5,6,6,7,7,8,8,9,9,10,10,11,11,12,12,13,13,14,14,15,15,16,16,17,17,18,18,19,19,20,20,21,21,22,22,23,23,24,24,25,25,26,26,27,27,28,28,29,29,30,30,31,31,32,32,33,33,34,34,35,35,36,36,37,37,38,38,39,39,40,40,41,41,42,42,43,43,44,44,46,46,47,47,48,48,49,49,50,50,51,51,52,52,53,53,54,54,55,55,56,56,57,57,58,58,59,59,60,60,61,61,62,62],"right_children":[2,4,6,8,10,12,14,16,18,20,22,24,26,28,30,32,34,36,38,40,42,44,46,48,50,52,54,56,58,60,62,64,66,68,70,72,74,76,78,80,82,84,86,88,90,-1,92,94,96,98,100,102,104,106,108,110,112,114,116,118,120,122,124,-1,-1,-1,-1,-1,-1,-1,-1,-1,-1,-1,-1,-1,-1,-1,-1,-1,-1,-1,-1,-1,-1,-1,-1,-1,-1,-1,-1,-1,-1,-1,-1,-1,-1,-1,-1,-1,-1,-1,-1,-1,-1,-1,-1,-1,-1,-1,-1,-1,-1,-1,-1,-1,-1,-1,-1,-1,-1,-1,-1,-1,-1],"split_conditions":[1.5016781E3,1.6641482E3,1.968E3,1.969E3,1.3447333E3,2.08E2,1.3348718E3,1.5110807E3,1.2207831E3,2.66E2,3.28E2,2.15E2,2.1E1,1.7849363E3,1.8862487E3,3.12E2,3.22E2,1.3724624E3,9E1,3.02E2,1.2971234E3,2.01E3,1.6706439E3,1.912E3,1.901652E3,1.6320159E3,1.7200525E3,1.12E2,2.009E3,3.06E2,1.9415934E3,2.23E2,1.4254918E3,2.98E2,1.5779877E3,1.0336494E3,1.87E2,8.8E1,1.31E2,1.24351E3,3.06E2,1.31E2,1.7151865E3,2.8E1,2.011E3,-1.13946564E-1,1.6793854E3,1.7974968E3,1.93E2,1.77E2,1.958E3,2.63E2,1.962E3,1.56E2,1.965E3,1.2130697E3,2.9E1,2.27E2,2.79E2,2.0685952E3,3.09E2,1.11E2,2E3,-7.016039E-2,-5.749491E-3,-7.297999E-2,-1.6124849E-1,-9.016325E-2,-1.7403324E-1,-2.1123307E-2,2.4127351E-1,-9.794343E-2,-3.3747658E-2,-7.831069E-2,-1.3409333E-1,-3.828967E-2,-1.011817E-2,-1.0703977E-1,-4.0329017E-2,-1.6221634E-1,-1.3804275E-1,7.578233E-2,-1.0665126E-1,-1.508914E-1,-6.506932E-2,1.0854539E-1,-9.381311E-2,-1.3845004E-1,-8.249484E-2,5.8095343E-2,-6.156383E-2,3.041153E-1,6.2185615E-2,-1.7747332E-1,1.489417E-1,-5.46843E-2,-3.017986E-3,-7.9387695E-2,7.9072036E-2,8.608227E-2,-1.04638636E-1,-1.8060714E-1,-1.0564939E-1,-1.4492957E-1,1.5582493E-1,-7.479997E-2,-1.9558683E-2,-2.184367E-2,7.166625E-2,-8.550917E-2,3.4116052E-2,-1.5001406E-1,-6.1324004E-2,-8.633711E-2,-1.7212394E-1,-1.7706035E-1,-9.624026E-2,-1.1515649E-2,-8.3096035E-2,-4.3940075E-2,8.2167044E-2,-6.5982915E-2,-2.7939213E-2,6.9917075E-2,-1.2952047E-2],"split_indices":[5,4,3,3,5,0,4,4,5,0,0,1,2,5,4,1,0,4,2,1,5,3,4,3,4,4,5,1,3,1,5,1,4,0,4,5,0,2,1,5,1,2,4,1,3,0,4,5,1,2,3,0,3,1,3,4,0,0,1,5,0,1,3,0,0,0,0,0,0,0,0,0,0,0,0,0,0,0,0,0,0,0,0,0,0,0,0,0,0,0,0,0,0,0,0,0,0,0,0,0,0,0,0,0,0,0,0,0,0,0,0,0,0,0,0,0,0,0,0,0,0,0,0,0,0],"split_type":[0,0,0,0,0,0,0,0,0,0,0,0,0,0,0,0,0,0,0,0,0,0,0,0,0,0,0,0,0,0,0,0,0,0,0,0,0,0,0,0,0,0,0,0,0,0,0,0,0,0,0,0,0,0,0,0,0,0,0,0,0,0,0,0,0,0,0,0,0,0,0,0,0,0,0,0,0,0,0,0,0,0,0,0,0,0,0,0,0,0,0,0,0,0,0,0,0,0,0,0,0,0,0,0,0,0,0,0,0,0,0,0,0,0,0,0,0,0,0,0,0,0,0,0,0],"sum_hessian":[1.6215148E4,5.0534023E3,1.1161746E4,4.127264E3,9.2613794E2,1.7263379E3,9.435408E3,9.053552E2,3.221909E3,2.7877167E2,6.473663E2,1.1373367E3,5.890013E2,5.363766E2,8.899032E3,5.2077527E2,3.8457996E2,5.398689E2,2.68204E3,2.2597905E2,5.279263E1,6.379072E2,9.459012E0,6.683315E2,4.6900516E2,2.9309702E1,5.596916E2,4.3640094E2,9.997562E1,7.7317246E3,1.1673076E3,4.7409216E2,4.668309E1,3.7616916E2,8.4108095E0,2.9218243E2,2.476865E2,2.1400625E3,5.419776E2,2.0338399E2,2.2595068E1,3.4753757E1,1.8038872E1,5.1264185E2,1.252654E2,1.207979E0,8.251033E0,2.255347E1,6.45778E2,4.5143216E2,1.7573006E1,2.547651E1,3.8331919E0,3.8447595E2,1.7521565E2,1.1872205E2,3.176789E2,7.2962326E1,2.701329E1,7.1440747E3,5.8764996E2,9.4457904E2,2.2272859E2,3.4749478E2,1.2659738E2,2.585495E1,2.0828142E1,3.5409573E2,2.2073406E1,6.9183254E0,1.4924835E0,9.177015E1,2.0041228E2,1.3450165E2,1.13184845E2,1.2388885E3,9.01174E2,1.3900568E2,4.0297192E2,1.0439893E2,9.898505E1,1.9645901E0,2.0630478E1,2.6390156E1,8.363603E0,6.7697535E0,1.1269118E1,3.2498913E1,4.8014294E2,1.2691099E1,1.1257431E2,1.713283E0,6.5377502E0,2.1222881E1,1.3305895E0,5.8553815E2,6.023983E1,4.4750607E2,3.9260824E0,1.0156504E1,7.416501E0,9.009557E0,1.6466953E1,2.6210644E0,1.2121274E0,1.8527531E2,1.9920062E2,1.462303E2,2.8985342E1,3.1387712E1,8.733434E1,3.26858E1,2.849931E2,6.2699528E1,1.0262796E1,2.2676987E1,4.336303E0,7.0729346E3,7.1139885E1,5.621391E2,2.5510899E1,3.3135156E2,6.132275E2,4.228992E1,1.8043867E2],"tree_param":{"num_deleted":"0","num_feature":"6","num_nodes":"125","size_leaf_vector":"1"}},{"base_weights":[-6.047747E-2,6.3168906E-2,-1.5219435E-1,-5.286479E-2,2.1862154E-1,-3.0931836E-1,-5.066183E-2,1.1516117E-1,-1.01938315E-1,3.8953018E-1,1.5965834E-1,-4.2755136E-1,-2.3529303E-1,2.4319213E-2,-1.4187582E-1,-1.5684465E-1,1.8661043E-1,-2.4290052E-1,-2.8619904E-2,3.2900542E-1,5.88162E-1,1.3003936E-1,3.1680182E-1,-3.8245076E-1,-4.9024978E-1,-1.8985094E-1,-3.6358574E-1,-1.1680696E-2,2.1677783E-1,-2.2673678E-1,-2.914148E-3,6.0892988E-2,-2.443579E-1,3.8528544E-1,1.2869368E-1,-3.7175065E-1,-1.9269875E-1,-2.2113474E-1,-3.4943009E-3,1.8621752E-1,2.865745E-1,7.6411724E-2,6.194266E-1,6.425115E-1,1.2465039E-1,1.0720145E-1,3.7777182E-1,-5.425925E-1,-3.627788E-1,-5.338542E-1,-4.4059277E-1,-9.8276556E-2,-2.3022434E-1,-3.1679916E-1,-4.1746536E-1,4.8591446E-2,-7.230659E-2,1.8848689E-1,5.7536876E-1,-1.9214591E-1,-3.921649E-1,3.535238E-2,-1.5170114E-1,7.756273E-2,-7.442715E-3,-1.0866252E-1,-3.3496518E-2,1.7082292E-1,8.299526E-2,5.7347016E-3,6.8873145E-2,1.1874624E-2,-1.1773826E-1,-3.683324E-2,-7.2889596E-2,-1.0777052E-1,-2.501162E-2,1.7270425E-2,-2.2600628E-2,3.5981767E-2,9.93432E-2,7.380285E-2,-1.9104256E-1,1.939032E-1,9.502372E-2,3.714259E-2,2.8038225E-1,5.0137676E-2,2.0085061E-2,3.2876641E-3,1.4002843E-1,9.759386E-2,1.6538411E-1,1.4862753E-2,-1.658382E-1,-8.227745E-2,-1.15843296E-1,-1.03501E-1,-1.6380695E-1,-1.4090684E-1,-7.340149E-2,-3.2712206E-2,1.23474605E-1,-9.325888E-2,-5.2579597E-2,-1.4291538E-1,-8.461253E-2,-1.4036223E-1,-8.990825E-2,-1.37673E-3,3.764484E-2,-8.356722E-2,-1.608386E-2,1.1567225E-1,4.9102403E-2,-1.1105795E-1,1.967253E-1,-7.585374E-2,-3.2837346E-2,-9.25581E-2,-1.3920274E-1,-1.14669055E-2,3.8027532E-2,-1.2223478E-1,-1.8109225E-2],"categories":[],"categories_nodes":[],"categories_segments":[],"categories_sizes":[],"default_left":[0,0,0,0,0,0,0,0,0,0,0,0,0,0,0,0,0,0,0,0,0,0,0,0,0,0,0,0,0,0,0,0,0,0,0,0,0,0,0,0,0,0,0,0,0,0,0,0,0,0,0,0,0,0,0,0,0,0,0,0,0,0,0,0,0,0,0,0,0,0,0,0,0,0,0,0,0,0,0,0,0,0,0,0,0,0,0,0,0,0,0,0,0,0,0,0,0,0,0,0,0,0,0,0,0,0,0,0,0,0,0,0,0,0,0,0,0,0,0,0,0,0,0,0,0],"id":10,"left_children":[1,3,5,7,9,11,13,15,17,19,21,23,25,27,29,31,33,35,37,39,41,43,45,47,49,51,53,55,57,59,61,63,65,67,69,71,73,75,77,-1,79,81,83,85,87,89,91,93,95,97,99,101,103,105,107,109,111,113,115,117,119,121,123,-1,-1,-1,-1,-1,-1,-1,-1,-1,-1,-1,-1,-1,-1,-1,-1,-1,-1,-1,-1,-1,-1,-1,-1,-1,-1,-1,-1,-1,-1,-1,-1,-1,-1,-1,-1,-1,-1,-1,-1,-1,-1,-1,-1,-1,-1,-1,-1,-1,-1,-1,-1,-1,-1,-1,-1,-1,-1,-1,-1,-1,-1],"loss_changes":[1.8893404E2,1.27997E2,1.5257515E2,3.351895E1,3.0500214E1,3.2758728E1,3.9750233E1,1.7890068E1,3.250337E1,9.150482E0,1.0461807E1,3.896698E0,1.340419E1,2.2107378E1,3.092007E1,3.6682415E0,8.330593E0,6.889591E0,1.0014061E1,7.223877E0,2.836586E0,5.168209E0,4.5239716E0,2.463913E0,1.0655212E0,6.2946243E0,1.388794E0,9.82793E0,4.9922943E0,9.240128E0,5.6713696E0,9.5105803E-1,2.101492E0,3.1205482E0,6.245964E0,2.5767517E0,2.6993885E0,4.5171757E0,8.042845E0,0E0,3.8512611E0,1.5499712E0,1.1781235E0,2.844077E0,4.6008987E0,2.8284004E0,2.3355064E0,5.7336235E-1,1.4561539E0,5.3583527E-1,1.5188599E0,2.9237819E0,5.1977005E0,1.6799889E0,1.5059624E0,5.516188E0,5.154595E0,2.2230988E0,3.0002356E0,6.739933E0,1.5427513E0,5.33383E0,4.735423E0,0E0,0E0,0E0,0E0,0E0,0E0,0E0,0E0,0E0,0E0,0E0,0E0,0E0,0E0,0E0,0E0,0E0,0E0,0E0,0E0,0E0,0E0,0E0,0E0,0E0,0E0,0E0,0E0,0E0,0E0,0E0,0E0,0E0,0E0,0E0,0E0,0E0,0E0,0E0,0E0,0E0,0E0,0E0,0E0,0E0,0E0,0E0,0E0,0E0,0E0,0E0,0E0,0E0,0E0,0E0,0E0,0E0,0E0,0E0,0E0,0E0,0E0],"parents":[2147483647,0,0,1,1,2,2,3,3,4,4,5,5,6,6,7,7,8,8,9,9,10,10,11,11,12,12,13,13,14,14,15,15,16,16,17,17,18,18,19,19,20,20,21,21,22,22,23,23,24,24,25,25,26,26,27,27,28,28,29,29,30,30,31,31,32,32,33,33,34,34,35,35,36,36,37,37,38,38,40,40,41,41,42,42,43,43,44,44,45,45,46,46,47,47,48,48,49,49,50,50,51,51,52,52,53,53,54,54,55,55,56,56,57,57,58,58,59,59,60,60,61,61,62,62],"right_children":[2,4,6,8,10,12,14,16,18,20,22,24,26,28,30,32,34,36,38,40,42,44,46,48,50,52,54,56,58,60,62,64,66,68,70,72,74,76,78,-1,80,82,84,86,88,90,92,94,96,98,100,102,104,106,108,110,112,114,116,118,120,122,124,-1,-1,-1,-1,-1,-1,-1,-1,-1,-1,-1,-1,-1,-1,-1,-1,-1,-1,-1,-1,-1,-1,-1,-1,-1,-1,-1,-1,-1,-1,-1,-1,-1,-1,-1,-1,-1,-1,-1,-1,-1,-1,-1,-1,-1,-1,-1,-1,-1,-1,-1,-1,-1,-1,-1,-1,-1,-1,-1,-1,-1,-1],"split_conditions":[1.5369027E3,1.5628093E3,1.6240653E3,1.297004E3,1.3547485E3,1.4655986E3,1.7511957E3,1.1779314E3,1.4023038E3,1.7820918E3,1.7944381E3,1.6772631E3,1.7435574E3,1.8731212E3,1.8424885E3,1.02100275E3,1.1143016E3,1.24351E3,1.5E1,1.1143016E3,1.96E3,1.913E3,7.7E1,1.2207831E3,1.3783015E3,1.5890148E3,1.8200714E3,1.6487395E3,2.0685952E3,1.9416481E3,1.9758981E3,4.3E1,1.81E2,8.1E1,1.4106787E3,1.954E3,1.988E3,1.63E2,1.984E3,1.8621752E-1,8.7E1,1.3229352E3,2.79E2,1.6218856E3,1.4751312E3,1.9505442E3,2.01E3,1.95E3,1.965E3,1.944E3,2.93E2,1.6198969E3,8.5E1,1.753665E3,1.5920916E3,1.998E3,1.4E1,3E1,1.5E1,1.7508832E3,2.005E3,1.930703E3,4E1,7.756273E-2,-7.442715E-3,-1.0866252E-1,-3.3496518E-2,1.7082292E-1,8.299526E-2,5.7347016E-3,6.8873145E-2,1.1874624E-2,-1.1773826E-1,-3.683324E-2,-7.2889596E-2,-1.0777052E-1,-2.501162E-2,1.7270425E-2,-2.2600628E-2,3.5981767E-2,9.93432E-2,7.380285E-2,-1.9104256E-1,1.939032E-1,9.502372E-2,3.714259E-2,2.8038225E-1,5.0137676E-2,2.0085061E-2,3.2876641E-3,1.4002843E-1,9.759386E-2,1.6538411E-1,1.4862753E-2,-1.658382E-1,-8.227745E-2,-1.15843296E-1,-1.03501E-1,-1.6380695E-1,-1.4090684E-1,-7.340149E-2,-3.2712206E-2,1.23474605E-1,-9.325888E-2,-5.2579597E-2,-1.4291538E-1,-8.461253E-2,-1.4036223E-1,-8.990825E-2,-1.37673E-3,3.764484E-2,-8.356722E-2,-1.608386E-2,1.1567225E-1,4.9102403E-2,-1.1105795E-1,1.967253E-1,-7.585374E-2,-3.2837346E-2,-9.25581E-2,-1.3920274E-1,-1.14669055E-2,3.8027532E-2,-1.2223478E-1,-1.8109225E-2],"split_indices":[4,5,5,4,4,5,4,5,5,5,5,4,4,5,5,4,4,5,2,4,3,3,0,5,5,4,4,4,5,4,4,0,0,0,5,3,3,0,3,0,1,4,1,5,4,5,3,3,3,3,1,5,2,4,5,3,2,0,1,5,3,5,0,0,0,0,0,0,0,0,0,0,0,0,0,0,0,0,0,0,0,0,0,0,0,0,0,0,0,0,0,0,0,0,0,0,0,0,0,0,0,0,0,0,0,0,0,0,0,0,0,0,0,0,0,0,0,0,0,0,0,0,0,0,0],"split_type":[0,0,0,0,0,0,0,0,0,0,0,0,0,0,0,0,0,0,0,0,0,0,0,0,0,0,0,0,0,0,0,0,0,0,0,0,0,0,0,0,0,0,0,0,0,0,0,0,0,0,0,0,0,0,0,0,0,0,0,0,0,0,0,0,0,0,0,0,0,0,0,0,0,0,0,0,0,0,0,0,0,0,0,0,0,0,0,0,0,0,0,0,0,0,0,0,0,0,0,0,0,0,0,0,0,0,0,0,0,0,0,0,0,0,0,0,0,0,0,0,0,0,0,0,0],"sum_hessian":[1.6658328E4,7.094425E3,9.563903E3,4.0626343E3,3.0317908E3,3.753392E3,5.810511E3,9.1802014E2,3.144614E3,7.762303E2,2.2555605E3,1.443332E3,2.31006E3,3.1894263E3,2.621085E3,1.9072787E2,7.2729224E2,1.075172E3,2.069442E3,5.969814E2,1.7924889E2,1.899385E3,3.561755E2,8.436048E2,5.9972723E2,1.7076719E3,6.0238824E2,2.687636E3,5.017903E2,1.6269247E3,9.9416034E2,5.4767536E1,1.3596034E2,1.628853E2,5.644069E2,2.996561E2,7.755159E2,2.380071E2,1.8314349E3,7.407485E1,5.2290656E2,1.0518715E1,1.6873016E2,1.8535143E1,1.8808499E3,8.088173E1,2.7529376E2,8.938369E1,7.542211E2,3.1413287E2,2.8559436E2,5.2356433E2,1.1841075E3,3.2609888E2,2.7628937E2,1.3478495E3,1.3397864E3,4.665107E2,3.527961E1,1.3473555E3,2.7956927E2,7.9138617E2,2.0277422E2,1.5954915E1,3.881262E1,7.109392E1,6.4866425E1,5.8868248E1,1.0401705E2,2.7111526E2,2.9329166E2,1.4320488E1,2.8533563E2,3.2578647E2,4.497295E2,1.1805507E2,1.1995202E2,9.900914E2,8.4134357E2,1.11125244E2,4.117813E2,9.027196E0,1.491519E0,1.5390778E2,1.4822395E1,7.1903725E0,1.134477E1,1.0822616E3,7.985883E2,6.461647E1,1.6265259E1,2.1359106E2,6.170271E1,1.4485276E0,8.793516E1,1.6016609E2,5.94055E2,2.0793205E1,2.9333966E2,2.4744798E2,3.8146366E1,5.135093E2,1.00550585E1,4.78043E2,7.060645E2,5.6049034E1,2.7004984E2,1.9139514E2,8.489422E1,7.973303E2,5.5051917E2,1.1018596E2,1.2296005E3,5.0538216E1,4.159725E2,2.4816573E0,3.279795E1,7.757979E2,5.715575E2,1.3162808E2,1.4794121E2,4.387807E2,3.5260547E2,5.24502E1,1.50324E2],"tree_param":{"num_deleted":"0","num_feature":"6","num_nodes":"125","size_leaf_vector":"1"}},{"base_weights":[1.513317E-1,3.0522922E-1,8.030298E-2,1.8592955E-1,4.3554568E-1,-1.197478E-1,1.3371918E-1,3.5298285E-1,1.4305015E-1,5.9674406E-1,4.0353423E-1,-6.979073E-3,-2.213242E-1,2.1656416E-1,4.8222896E-2,1.6848218E-1,4.2974502E-1,-4.5803413E-2,1.9283253E-1,6.121073E-1,3.5977957E-1,3.478848E-1,4.9617687E-1,-2.5081503E-1,2.9222282E-2,-4.2082676E-1,-1.6502652E-1,1.4249973E-1,2.9648116E-1,-6.0641866E-2,1.3025169E-1,3.3873746E-1,7.8499414E-2,6.078027E-1,3.8194355E-1,-1.747538E-1,4.2756088E-2,2.4060647E-1,1.1998245E-1,2.0132065E-1,5.4294884E-1,8.998079E-3,4.232848E-1,3.579488E-1,3.315707E-2,5.546598E-1,4.3626344E-1,-5.073804E-1,-1.9964176E-1,3.5997584E-2,-4.5624968E-1,-3.2557428E-1,-5.366822E-1,-1.3052002E-1,-3.699832E-1,1.9645615E-1,6.950251E-2,2.619818E-1,3.8083234E-1,-9.7437585E-3,-1.491604E-1,3.1034636E-1,9.619225E-2,1.12992175E-1,-1.09389E-1,1.3155924E-1,1.0237137E-2,1.9390188E-1,5.291969E-2,9.326635E-2,1.5385449E-1,-8.116095E-2,-1.6935596E-2,3.726596E-2,-2.1290436E-2,4.8437525E-2,9.48982E-2,7.339984E-2,2.5260326E-2,8.9311115E-2,1.8171191E-1,8.342076E-2,-7.712958E-2,1.5213798E-1,4.7310796E-2,2.2869532E-1,1.0527883E-1,4.460462E-2,-1.1748622E-1,1.3293058E-1,1.8956919E-1,1.0682714E-1,1.6079372E-1,-1.7320727E-1,3.2140292E-2,-1.4039731E-1,-4.944926E-2,3.3484187E-2,1.8431853E-3,-1.7787863E-2,-1.8221314E-1,2.2273555E-2,-1.071086E-1,-8.254483E-2,-1.7021194E-1,-4.7254812E-2,7.1501546E-4,-1.3174379E-1,-5.3310197E-2,4.1245185E-2,8.508342E-2,3.9974075E-2,-6.4376947E-3,9.896869E-2,7.18209E-2,1.3742115E-1,1.01583935E-1,-2.598765E-2,1.5350037E-2,-4.868127E-2,7.51219E-2,1.370162E-1,5.622689E-2,3.7333462E-2,-2.6475487E-2],"categories":[],"categories_nodes":[],"categories_segments":[],"categories_sizes":[],"default_left":[0,0,0,0,0,0,0,0,0,0,0,0,0,0,0,0,0,0,0,0,0,0,0,0,0,0,0,0,0,0,0,0,0,0,0,0,0,0,0,0,0,0,0,0,0,0,0,0,0,0,0,0,0,0,0,0,0,0,0,0,0,0,0,0,0,0,0,0,0,0,0,0,0,0,0,0,0,0,0,0,0,0,0,0,0,0,0,0,0,0,0,0,0,0,0,0,0,0,0,0,0,0,0,0,0,0,0,0,0,0,0,0,0,0,0,0,0,0,0,0,0,0,0,0,0],"id":11,"left_children":[1,3,5,7,9,11,13,15,17,19,21,23,25,27,29,31,33,35,37,39,41,43,45,47,49,51,53,55,57,59,61,63,65,67,69,71,73,75,77,-1,79,81,83,85,87,89,91,93,95,97,99,101,103,105,107,109,111,113,115,117,119,121,123,-1,-1,-1,-1,-1,-1,-1,-1,-1,-1,-1,-1,-1,-1,-1,-1,-1,-1,-1,-1,-1,-1,-1,-1,-1,-1,-1,-1,-1,-1,-1,-1,-1,-1,-1,-1,-1,-1,-1,-1,-1,-1,-1,-1,-1,-1,-1,-1,-1,-1,-1,-1,-1,-1,-1,-1,-1,-1,-1,-1,-1,-1],"loss_changes":[2.0761835E2,9.317102E1,1.389158E2,2.2393082E1,1.4548218E1,3.1382225E1,7.265715E1,8.981575E0,2.3464993E1,1.5008545E0,1.2170868E1,1.147752E1,1.6119843E1,3.0797363E1,4.5106934E1,2.8761644E0,3.604889E0,5.960354E0,6.8435364E0,1.4402008E0,6.9143724E-1,4.736389E0,2.8979797E0,2.1055317E0,3.740912E0,3.3189774E0,7.9139366E0,1.0644684E1,7.1904907E0,9.779046E0,1.76385E1,1.8759041E0,1.9862869E0,1.4440765E0,3.1713486E0,2.3918948E0,2.87932E0,7.090225E0,3.4773817E0,0E0,3.0348396E0,4.8718202E-1,5.079608E-1,3.8554077E0,2.3917706E0,3.5956573E0,3.3853912E0,1.235878E0,1.2473178E0,2.522375E0,9.033611E-1,2.2434788E0,9.7808456E-1,3.463169E0,2.0721912E0,7.955471E0,6.6804776E0,2.6523438E0,2.2090454E0,6.4639106E0,4.1919117E0,8.148987E0,1.2641317E1,0E0,0E0,0E0,0E0,0E0,0E0,0E0,0E0,0E0,0E0,0E0,0E0,0E0,0E0,0E0,0E0,0E0,0E0,0E0,0E0,0E0,0E0,0E0,0E0,0E0,0E0,0E0,0E0,0E0,0E0,0E0,0E0,0E0,0E0,0E0,0E0,0E0,0E0,0E0,0E0,0E0,0E0,0E0,0E0,0E0,0E0,0E0,0E0,0E0,0E0,0E0,0E0,0E0,0E0,0E0,0E0,0E0,0E0,0E0,0E0,0E0,0E0],"parents":[2147483647,0,0,1,1,2,2,3,3,4,4,5,5,6,6,7,7,8,8,9,9,10,10,11,11,12,12,13,13,14,14,15,15,16,16,17,17,18,18,19,19,20,20,21,21,22,22,23,23,24,24,25,25,26,26,27,27,28,28,29,29,30,30,31,31,32,32,33,33,34,34,35,35,36,36,37,37,38,38,40,40,41,41,42,42,43,43,44,44,45,45,46,46,47,47,48,48,49,49,50,50,51,51,52,52,53,53,54,54,55,55,56,56,57,57,58,58,59,59,60,60,61,61,62,62],"right_children":[2,4,6,8,10,12,14,16,18,20,22,24,26,28,30,32,34,36,38,40,42,44,46,48,50,52,54,56,58,60,62,64,66,68,70,72,74,76,78,-1,80,82,84,86,88,90,92,94,96,98,100,102,104,106,108,110,112,114,116,118,120,122,124,-1,-1,-1,-1,-1,-1,-1,-1,-1,-1,-1,-1,-1,-1,-1,-1,-1,-1,-1,-1,-1,-1,-1,-1,-1,-1,-1,-1,-1,-1,-1,-1,-1,-1,-1,-1,-1,-1,-1,-1,-1,-1,-1,-1,-1,-1,-1,-1,-1,-1,-1,-1,-1,-1,-1,-1,-1,-1,-1,-1,-1,-1],"split_conditions":[1.4864634E3,1.5192429E3,1.4931461E3,1.2207831E3,1.2618082E3,1.600908E3,1.691199E3,1.1996903E3,1.3110984E3,2.95E2,1.6772631E3,1.2901096E3,1.3165359E3,1.6706439E3,1.7245466E3,9.921187E2,1.0336494E3,1.2130697E3,1.95E2,8.5E1,1.5523793E3,2.016E3,8.7E1,1.1143016E3,2.017E3,1.7268271E3,1.7974968E3,1.5988472E3,1.8271722E3,1.8100558E3,4E1,2.86E2,1.997E3,2.68E2,1.95E2,8.8E1,1.3991068E3,1.4338646E3,1.3447333E3,2.0132065E-1,1.5823423E3,1.5323036E3,1.7336569E3,9E0,2.93E2,4.4E1,1.7639767E3,2.5E2,1.4976528E3,1.5131871E3,6.8E1,2.2E1,1.97E3,2.68E2,1.95E2,1.5915045E3,1.996E3,1.978E3,1.09E2,1.6171473E3,3.08E2,1.7974968E3,1.9610835E3,1.12992175E-1,-1.09389E-1,1.3155924E-1,1.0237137E-2,1.9390188E-1,5.291969E-2,9.326635E-2,1.5385449E-1,-8.116095E-2,-1.6935596E-2,3.726596E-2,-2.1290436E-2,4.8437525E-2,9.48982E-2,7.339984E-2,2.5260326E-2,8.9311115E-2,1.8171191E-1,8.342076E-2,-7.712958E-2,1.5213798E-1,4.7310796E-2,2.2869532E-1,1.0527883E-1,4.460462E-2,-1.1748622E-1,1.3293058E-1,1.8956919E-1,1.0682714E-1,1.6079372E-1,-1.7320727E-1,3.2140292E-2,-1.4039731E-1,-4.944926E-2,3.3484187E-2,1.8431853E-3,-1.7787863E-2,-1.8221314E-1,2.2273555E-2,-1.071086E-1,-8.254483E-2,-1.7021194E-1,-4.7254812E-2,7.1501546E-4,-1.3174379E-1,-5.3310197E-2,4.1245185E-2,8.508342E-2,3.9974075E-2,-6.4376947E-3,9.896869E-2,7.18209E-2,1.3742115E-1,1.01583935E-1,-2.598765E-2,1.5350037E-2,-4.868127E-2,7.51219E-2,1.370162E-1,5.622689E-2,3.7333462E-2,-2.6475487E-2],"split_indices":[5,4,4,5,5,5,5,4,4,1,4,4,4,4,4,5,5,4,1,2,4,3,2,4,3,5,5,5,4,5,0,0,3,1,0,2,5,4,5,0,4,4,4,1,0,2,4,0,5,5,1,0,3,0,0,4,3,3,1,4,1,5,5,0,0,0,0,0,0,0,0,0,0,0,0,0,0,0,0,0,0,0,0,0,0,0,0,0,0,0,0,0,0,0,0,0,0,0,0,0,0,0,0,0,0,0,0,0,0,0,0,0,0,0,0,0,0,0,0,0,0,0,0,0,0],"split_type":[0,0,0,0,0,0,0,0,0,0,0,0,0,0,0,0,0,0,0,0,0,0,0,0,0,0,0,0,0,0,0,0,0,0,0,0,0,0,0,0,0,0,0,0,0,0,0,0,0,0,0,0,0,0,0,0,0,0,0,0,0,0,0,0,0,0,0,0,0,0,0,0,0,0,0,0,0,0,0,0,0,0,0,0,0,0,0,0,0,0,0,0,0,0,0,0,0,0,0,0,0,0,0,0,0,0,0,0,0,0,0,0,0,0,0,0,0,0,0,0,0,0,0,0,0],"sum_hessian":[1.899454E4,5.997182E3,1.2997357E4,3.1322007E3,2.8649814E3,2.73883E3,1.0258527E4,6.382846E2,2.4939163E3,4.717537E2,2.3932278E3,1.2984155E3,1.4404146E3,5.209269E3,5.049259E3,1.884744E2,4.4981018E2,5.2027814E2,1.9736381E3,4.415438E2,3.0209896E1,1.4980941E3,8.951335E2,1.670841E2,1.1313314E3,3.1558795E2,1.1248267E3,2.7050764E3,2.5041924E3,2.169827E3,2.879432E3,6.421311E1,1.2426129E2,9.27197E1,3.5709048E2,2.1143582E2,3.0884235E2,1.1905747E3,7.830633E2,2.3364478E2,2.0789902E2,4.8058243E0,2.5404072E1,1.4515411E3,4.6553024E1,4.4879565E2,4.4633786E2,2.6301651E1,1.4078246E2,1.1166729E3,1.465857E1,1.752848E2,1.4030315E2,9.641407E2,1.6068593E2,1.5544224E3,1.1506539E3,1.7802017E3,7.239908E2,1.3783733E3,7.9145374E2,4.5665958E2,2.4227722E3,6.137049E1,2.8426175E0,1.2660556E1,1.1160074E2,8.465897E1,8.060733E0,2.3364293E2,1.2344755E2,1.1612706E2,9.5308754E1,1.7988995E2,1.289524E2,5.8364526E2,6.0692944E2,1.7330995E2,6.097533E2,4.3531044E1,1.6436797E2,2.3671854E0,2.438639E0,1.8617281E1,6.786791E0,2.2931276E1,1.4286099E3,3.7110275E1,9.442747E0,1.8636148E2,2.6243417E2,2.4994724E2,1.9639062E2,2.3667063E1,2.6345894E0,1.47367115E1,1.2604575E2,3.153028E2,8.013701E2,4.425839E0,1.0232732E1,1.268495E1,1.6259985E2,1.5781997E1,1.2452114E2,8.0120966E2,1.6293103E2,1.1723383E2,4.3452095E1,9.286461E2,6.2577625E2,6.762698E2,4.7438422E2,4.4078207E2,1.3394196E3,2.5239545E2,4.7159534E2,6.09118E2,7.692553E2,7.668848E2,2.4568947E1,2.0720697E2,2.4945262E2,2.1012358E3,3.215364E2],"tree_param":{"num_deleted":"0","num_feature":"6","num_nodes":"125","size_leaf_vector":"1"}},{"base_weights":[-8.743197E-2,-2.071984E-1,-7.4505724E-2,-1.5278266E-1,-3.5961348E-1,-1.6412888E-1,-5.5852897E-2,-3.265838E-1,-1.3335389E-1,-4.594861E-1,-3.0841202E-1,-1.9513759E-1,-1.299669E-1,-1.9794776E-1,-5.0716642E-2,-1.797135E-1,-4.6866035E-1,-1.7161445E-1,-4.8519727E-2,-3.114362E-1,-4.8232234E-1,-3.8590613E-1,-2.3026787E-1,-1.4920868E-1,-2.2694492E-1,-1.8180445E-1,-9.781999E-2,-1.7579761E-1,-4.69001E-1,-7.083419E-2,-2.8121913E-2,-2.661505E-3,-3.237664E-1,-5.12292E-1,-1.4033772E-1,-1.5738237E-1,-4.7296154E-1,-1.3445871E-3,-2.6423904E-1,-4.2960837E-1,2.4495691E-1,-3.5558861E-1,-5.1213074E-1,-2.8719017E-1,-4.809075E-1,-1.3401341E-1,-3.5903463E-1,4.0760353E-1,-1.5555604E-1,-3.0342868E-1,-1.9445837E-1,-1.9693518E-1,5.583007E-2,5.716776E-2,-1.1516084E-1,-2.5465015E-1,-8.926766E-2,-1.6713992E-1,-3.0512002E-1,-5.5487804E-2,-1.5338555E-1,-6.8898425E-2,-8.965988E-5,1.2131496E-1,-5.380135E-2,3.9813958E-2,-1.24675356E-1,-1.5904537E-1,-1.776884E-2,-1.3683096E-1,6.0829636E-2,-3.3429876E-2,-7.000818E-2,-1.4925696E-1,-8.078995E-3,-4.6013724E-3,2.3340723E-1,-9.697792E-2,9.4812796E-2,-1.435361E-1,2.098168E-2,-1.1267268E-1,2.3610988E-1,-3.736988E-2,-1.4218704E-1,-1.100194E-1,-1.5862885E-1,-1.12934805E-1,3.1827345E-2,-1.10399965E-2,-1.4763035E-1,-5.6528457E-2,1.3487177E-1,-1.608921E-1,-7.3550634E-2,1.9330452E-1,-1.0602955E-1,-1.4866273E-1,-4.3144092E-2,-7.1393445E-2,-1.2944035E-1,6.3332E-3,-6.2869474E-2,4.7205663E-3,-6.440704E-2,1.2151021E-1,-4.97699E-2,5.3761914E-2,-4.7556017E-2,-4.9676046E-2,-1.2879259E-2,-1.3882704E-1,-6.25186E-2,1.1515478E-2,-7.246151E-2,1.0257779E-1,-1.5739502E-1,-9.392755E-3,-3.6425926E-2,-3.0235633E-2,-6.6080555E-2,-9.203703E-2,-1.8761262E-2,-3.7587143E-2,5.8725993E-3],"categories":[],"categories_nodes":[],"categories_segments":[],"categories_sizes":[],"default_left":[0,0,0,0,0,0,0,0,0,0,0,0,0,0,0,0,0,0,0,0,0,0,0,0,0,0,0,0,0,0,0,0,0,0,0,0,0,0,0,0,0,0,0,0,0,0,0,0,0,0,0,0,0,0,0,0,0,0,0,0,0,0,0,0,0,0,0,0,0,0,0,0,0,0,0,0,0,0,0,0,0,0,0,0,0,0,0,0,0,0,0,0,0,0,0,0,0,0,0,0,0,0,0,0,0,0,0,0,0,0,0,0,0,0,0,0,0,0,0,0,0,0,0,0,0],"id":12,"left_children":[1,3,5,7,9,11,13,15,17,19,21,23,25,27,29,31,33,35,37,39,41,43,45,47,49,51,53,55,57,59,61,63,65,67,69,71,73,75,77,79,81,83,85,87,89,91,93,95,97,99,101,103,105,107,109,111,113,-1,115,117,119,121,123,-1,-1,-1,-1,-1,-1,-1,-1,-1,-1,-1,-1,-1,-1,-1,-1,-1,-1,-1,-1,-1,-1,-1,-1,-1,-1,-1,-1,-1,-1,-1,-1,-1,-1,-1,-1,-1,-1,-1,-1,-1,-1,-1,-1,-1,-1,-1,-1,-1,-1,-1,-1,-1,-1,-1,-1,-1,-1,-1,-1,-1,-1],"loss_changes":[2.428836E1,1.2624054E1,2.3680962E1,3.7663422E0,1.9112091E0,2.560173E0,8.551895E0,2.2686129E0,3.2910957E0,3.028965E-1,1.5367393E0,1.8323021E0,1.9224625E0,2.3725948E0,5.145069E0,1.4545504E0,7.402191E-1,2.9284477E0,3.229196E0,1.4683778E0,2.4963951E-1,1.112011E0,1.639246E0,1.9210463E0,1.8115311E0,1.6092501E0,1.9438624E0,2.5674458E0,2.6751566E-1,7.579258E0,6.0982056E0,1.9860531E0,1.3735688E0,3.7044144E-1,9.621669E-1,2.3133907E0,3.2706642E-1,2.862849E0,2.052348E0,4.5957828E-1,1.7315047E0,6.255326E-1,2.4347305E-2,2.4219255E0,3.1220722E-1,2.6092997E0,1.0319743E0,1.3448498E0,2.006322E0,1.763176E0,1.7341938E0,1.5821705E0,2.1877813E0,1.9552374E0,2.355319E0,1.8102808E0,3.5573955E0,0E0,1.9981642E0,8.049933E0,3.2788868E0,3.2696733E0,7.788896E0,0E0,0E0,0E0,0E0,0E0,0E0,0E0,0E0,0E0,0E0,0E0,0E0,0E0,0E0,0E0,0E0,0E0,0E0,0E0,0E0,0E0,0E0,0E0,0E0,0E0,0E0,0E0,0E0,0E0,0E0,0E0,0E0,0E0,0E0,0E0,0E0,0E0,0E0,0E0,0E0,0E0,0E0,0E0,0E0,0E0,0E0,0E0,0E0,0E0,0E0,0E0,0E0,0E0,0E0,0E0,0E0,0E0,0E0,0E0,0E0,0E0,0E0],"parents":[2147483647,0,0,1,1,2,2,3,3,4,4,5,5,6,6,7,7,8,8,9,9,10,10,11,11,12,12,13,13,14,14,15,15,16,16,17,17,18,18,19,19,20,20,21,21,22,22,23,23,24,24,25,25,26,26,27,27,28,28,29,29,30,30,31,31,32,32,33,33,34,34,35,35,36,36,37,37,38,38,39,39,40,40,41,41,42,42,43,43,44,44,45,45,46,46,47,47,48,48,49,49,50,50,51,51,52,52,53,53,54,54,55,55,56,56,58,58,59,59,60,60,61,61,62,62],"right_children":[2,4,6,8,10,12,14,16,18,20,22,24,26,28,30,32,34,36,38,40,42,44,46,48,50,52,54,56,58,60,62,64,66,68,70,72,74,76,78,80,82,84,86,88,90,92,94,96,98,100,102,104,106,108,110,112,114,-1,116,118,120,122,124,-1,-1,-1,-1,-1,-1,-1,-1,-1,-1,-1,-1,-1,-1,-1,-1,-1,-1,-1,-1,-1,-1,-1,-1,-1,-1,-1,-1,-1,-1,-1,-1,-1,-1,-1,-1,-1,-1,-1,-1,-1,-1,-1,-1,-1,-1,-1,-1,-1,-1,-1,-1,-1,-1,-1,-1,-1,-1,-1,-1,-1,-1],"split_conditions":[1.3447333E3,1.5823423E3,1.968E3,1.0336494E3,1.2207831E3,1.5699438E3,1.2518394E3,1.1996903E3,2.008E3,1.975E3,8.7E1,1.4908787E3,1.03E2,1.8388658E3,1.6676669E3,2.011E3,2.016E3,1.3396354E3,2.43E2,1.26E2,9E1,5.1E1,1.3035012E3,1.5E1,1.936E3,1.8963243E3,1.5877048E3,8.5E1,1.930703E3,1E2,1.31E2,1.2E2,4E0,1.56E2,8.5E1,1.81E2,2.96E2,3.27E2,3.02E2,2.27E2,1.7511957E3,1.6859517E3,1.5E1,2.56E2,1.5890148E3,3.02E2,1.4E2,1.95E3,1.911E3,1.928E3,3.1E1,2.1E1,1.9134092E3,2.55E2,1.7200525E3,1.0581733E3,9E1,-1.6713992E-1,1.9610835E3,1.6837227E3,1.87E2,1.971E3,1.4997628E3,1.2131496E-1,-5.380135E-2,3.9813958E-2,-1.24675356E-1,-1.5904537E-1,-1.776884E-2,-1.3683096E-1,6.0829636E-2,-3.3429876E-2,-7.000818E-2,-1.4925696E-1,-8.078995E-3,-4.6013724E-3,2.3340723E-1,-9.697792E-2,9.4812796E-2,-1.435361E-1,2.098168E-2,-1.1267268E-1,2.3610988E-1,-3.736988E-2,-1.4218704E-1,-1.100194E-1,-1.5862885E-1,-1.12934805E-1,3.1827345E-2,-1.10399965E-2,-1.4763035E-1,-5.6528457E-2,1.3487177E-1,-1.608921E-1,-7.3550634E-2,1.9330452E-1,-1.0602955E-1,-1.4866273E-1,-4.3144092E-2,-7.1393445E-2,-1.2944035E-1,